<?xml version="1.0"?>
<opencv_storage>
<opencv_ml_boost>
  <format>3</format>
  <is_classifier>1</is_classifier>
  <var_all>786</var_all>
  <var_count>785</var_count>
  <ord_var_count>784</ord_var_count>
  <cat_var_count>2</cat_var_count>
  <training_params>
    <boosting_type>GentleAdaboost</boosting_type>
    <use_surrogates>0</use_surrogates>
    <max_categories>10</max_categories>
    <regression_accuracy>9.9999997764825821e-03</regression_accuracy>
    <max_depth>5</max_depth>
    <min_sample_count>10</min_sample_count>
    <cross_validation_folds>0</cross_validation_folds>
    <priors type_id="opencv-matrix">
      <rows>2</rows>
      <cols>1</cols>
      <dt>f</dt>
      <data>
        1. 10.</data></priors>
    <weight_trimming_rate>9.4999999999999996e-01</weight_trimming_rate></training_params>
  <global_var_idx>1</global_var_idx>
  <var_idx>
    0 1 2 3 4 5 6 7 8 9 10 11 12 13 14 15 16 17 18 19 20 21 22 23 24 25
    26 27 28 29 30 31 32 33 34 35 36 37 38 39 40 41 42 43 44 45 46 47 48
    49 50 51 52 53 54 55 56 57 58 59 60 61 62 63 64 65 66 67 68 69 70 71
    72 73 74 75 76 77 78 79 80 81 82 83 84 85 86 87 88 89 90 91 92 93 94
    95 96 97 98 99 100 101 102 103 104 105 106 107 108 109 110 111 112
    113 114 115 116 117 118 119 120 121 122 123 124 125 126 127 128 129
    130 131 132 133 134 135 136 137 138 139 140 141 142 143 144 145 146
    147 148 149 150 151 152 153 154 155 156 157 158 159 160 161 162 163
    164 165 166 167 168 169 170 171 172 173 174 175 176 177 178 179 180
    181 182 183 184 185 186 187 188 189 190 191 192 193 194 195 196 197
    198 199 200 201 202 203 204 205 206 207 208 209 210 211 212 213 214
    215 216 217 218 219 220 221 222 223 224 225 226 227 228 229 230 231
    232 233 234 235 236 237 238 239 240 241 242 243 244 245 246 247 248
    249 250 251 252 253 254 255 256 257 258 259 260 261 262 263 264 265
    266 267 268 269 270 271 272 273 274 275 276 277 278 279 280 281 282
    283 284 285 286 287 288 289 290 291 292 293 294 295 296 297 298 299
    300 301 302 303 304 305 306 307 308 309 310 311 312 313 314 315 316
    317 318 319 320 321 322 323 324 325 326 327 328 329 330 331 332 333
    334 335 336 337 338 339 340 341 342 343 344 345 346 347 348 349 350
    351 352 353 354 355 356 357 358 359 360 361 362 363 364 365 366 367
    368 369 370 371 372 373 374 375 376 377 378 379 380 381 382 383 384
    385 386 387 388 389 390 391 392 393 394 395 396 397 398 399 400 401
    402 403 404 405 406 407 408 409 410 411 412 413 414 415 416 417 418
    419 420 421 422 423 424 425 426 427 428 429 430 431 432 433 434 435
    436 437 438 439 440 441 442 443 444 445 446 447 448 449 450 451 452
    453 454 455 456 457 458 459 460 461 462 463 464 465 466 467 468 469
    470 471 472 473 474 475 476 477 478 479 480 481 482 483 484 485 486
    487 488 489 490 491 492 493 494 495 496 497 498 499 500 501 502 503
    504 505 506 507 508 509 510 511 512 513 514 515 516 517 518 519 520
    521 522 523 524 525 526 527 528 529 530 531 532 533 534 535 536 537
    538 539 540 541 542 543 544 545 546 547 548 549 550 551 552 553 554
    555 556 557 558 559 560 561 562 563 564 565 566 567 568 569 570 571
    572 573 574 575 576 577 578 579 580 581 582 583 584 585 586 587 588
    589 590 591 592 593 594 595 596 597 598 599 600 601 602 603 604 605
    606 607 608 609 610 611 612 613 614 615 616 617 618 619 620 621 622
    623 624 625 626 627 628 629 630 631 632 633 634 635 636 637 638 639
    640 641 642 643 644 645 646 647 648 649 650 651 652 653 654 655 656
    657 658 659 660 661 662 663 664 665 666 667 668 669 670 671 672 673
    674 675 676 677 678 679 680 681 682 683 684 685 686 687 688 689 690
    691 692 693 694 695 696 697 698 699 700 701 702 703 704 705 706 707
    708 709 710 711 712 713 714 715 716 717 718 719 720 721 722 723 724
    725 726 727 728 729 730 731 732 733 734 735 736 737 738 739 740 741
    742 743 744 745 746 747 748 749 750 751 752 753 754 755 756 757 758
    759 760 761 762 763 764 765 766 767 768 769 770 771 772 773 774 775
    776 777 778 779 780 781 782 783 784</var_idx>
  <var_type>
    0 0 0 0 0 0 0 0 0 0 0 0 0 0 0 0 0 0 0 0 0 0 0 0 0 0 0 0 0 0 0 0 0 0
    0 0 0 0 0 0 0 0 0 0 0 0 0 0 0 0 0 0 0 0 0 0 0 0 0 0 0 0 0 0 0 0 0 0
    0 0 0 0 0 0 0 0 0 0 0 0 0 0 0 0 0 0 0 0 0 0 0 0 0 0 0 0 0 0 0 0 0 0
    0 0 0 0 0 0 0 0 0 0 0 0 0 0 0 0 0 0 0 0 0 0 0 0 0 0 0 0 0 0 0 0 0 0
    0 0 0 0 0 0 0 0 0 0 0 0 0 0 0 0 0 0 0 0 0 0 0 0 0 0 0 0 0 0 0 0 0 0
    0 0 0 0 0 0 0 0 0 0 0 0 0 0 0 0 0 0 0 0 0 0 0 0 0 0 0 0 0 0 0 0 0 0
    0 0 0 0 0 0 0 0 0 0 0 0 0 0 0 0 0 0 0 0 0 0 0 0 0 0 0 0 0 0 0 0 0 0
    0 0 0 0 0 0 0 0 0 0 0 0 0 0 0 0 0 0 0 0 0 0 0 0 0 0 0 0 0 0 0 0 0 0
    0 0 0 0 0 0 0 0 0 0 0 0 0 0 0 0 0 0 0 0 0 0 0 0 0 0 0 0 0 0 0 0 0 0
    0 0 0 0 0 0 0 0 0 0 0 0 0 0 0 0 0 0 0 0 0 0 0 0 0 0 0 0 0 0 0 0 0 0
    0 0 0 0 0 0 0 0 0 0 0 0 0 0 0 0 0 0 0 0 0 0 0 0 0 0 0 0 0 0 0 0 0 0
    0 0 0 0 0 0 0 0 0 0 0 0 0 0 0 0 0 0 0 0 0 0 0 0 0 0 0 0 0 0 0 0 0 0
    0 0 0 0 0 0 0 0 0 0 0 0 0 0 0 0 0 0 0 0 0 0 0 0 0 0 0 0 0 0 0 0 0 0
    0 0 0 0 0 0 0 0 0 0 0 0 0 0 0 0 0 0 0 0 0 0 0 0 0 0 0 0 0 0 0 0 0 0
    0 0 0 0 0 0 0 0 0 0 0 0 0 0 0 0 0 0 0 0 0 0 0 0 0 0 0 0 0 0 0 0 0 0
    0 0 0 0 0 0 0 0 0 0 0 0 0 0 0 0 0 0 0 0 0 0 0 0 0 0 0 0 0 0 0 0 0 0
    0 0 0 0 0 0 0 0 0 0 0 0 0 0 0 0 0 0 0 0 0 0 0 0 0 0 0 0 0 0 0 0 0 0
    0 0 0 0 0 0 0 0 0 0 0 0 0 0 0 0 0 0 0 0 0 0 0 0 0 0 0 0 0 0 0 0 0 0
    0 0 0 0 0 0 0 0 0 0 0 0 0 0 0 0 0 0 0 0 0 0 0 0 0 0 0 0 0 0 0 0 0 0
    0 0 0 0 0 0 0 0 0 0 0 0 0 0 0 0 0 0 0 0 0 0 0 0 0 0 0 0 0 0 0 0 0 0
    0 0 0 0 0 0 0 0 0 0 0 0 0 0 0 0 0 0 0 0 0 0 0 0 0 0 0 0 0 0 0 0 0 0
    0 0 0 0 0 0 0 0 0 0 0 0 0 0 0 0 0 0 0 0 0 0 0 0 0 0 0 0 0 0 0 0 0 0
    0 0 0 0 0 0 0 0 0 0 0 0 0 0 0 0 0 0 0 0 0 0 0 0 0 0 0 0 0 0 0 0 0 0
    0 0 1 1</var_type>
  <cat_ofs>
    0 0 0 0 0 0 0 0 0 0 0 0 0 0 0 0 0 0 0 0 0 0 0 0 0 0 0 0 0 0 0 0 0 0
    0 0 0 0 0 0 0 0 0 0 0 0 0 0 0 0 0 0 0 0 0 0 0 0 0 0 0 0 0 0 0 0 0 0
    0 0 0 0 0 0 0 0 0 0 0 0 0 0 0 0 0 0 0 0 0 0 0 0 0 0 0 0 0 0 0 0 0 0
    0 0 0 0 0 0 0 0 0 0 0 0 0 0 0 0 0 0 0 0 0 0 0 0 0 0 0 0 0 0 0 0 0 0
    0 0 0 0 0 0 0 0 0 0 0 0 0 0 0 0 0 0 0 0 0 0 0 0 0 0 0 0 0 0 0 0 0 0
    0 0 0 0 0 0 0 0 0 0 0 0 0 0 0 0 0 0 0 0 0 0 0 0 0 0 0 0 0 0 0 0 0 0
    0 0 0 0 0 0 0 0 0 0 0 0 0 0 0 0 0 0 0 0 0 0 0 0 0 0 0 0 0 0 0 0 0 0
    0 0 0 0 0 0 0 0 0 0 0 0 0 0 0 0 0 0 0 0 0 0 0 0 0 0 0 0 0 0 0 0 0 0
    0 0 0 0 0 0 0 0 0 0 0 0 0 0 0 0 0 0 0 0 0 0 0 0 0 0 0 0 0 0 0 0 0 0
    0 0 0 0 0 0 0 0 0 0 0 0 0 0 0 0 0 0 0 0 0 0 0 0 0 0 0 0 0 0 0 0 0 0
    0 0 0 0 0 0 0 0 0 0 0 0 0 0 0 0 0 0 0 0 0 0 0 0 0 0 0 0 0 0 0 0 0 0
    0 0 0 0 0 0 0 0 0 0 0 0 0 0 0 0 0 0 0 0 0 0 0 0 0 0 0 0 0 0 0 0 0 0
    0 0 0 0 0 0 0 0 0 0 0 0 0 0 0 0 0 0 0 0 0 0 0 0 0 0 0 0 0 0 0 0 0 0
    0 0 0 0 0 0 0 0 0 0 0 0 0 0 0 0 0 0 0 0 0 0 0 0 0 0 0 0 0 0 0 0 0 0
    0 0 0 0 0 0 0 0 0 0 0 0 0 0 0 0 0 0 0 0 0 0 0 0 0 0 0 0 0 0 0 0 0 0
    0 0 0 0 0 0 0 0 0 0 0 0 0 0 0 0 0 0 0 0 0 0 0 0 0 0 0 0 0 0 0 0 0 0
    0 0 0 0 0 0 0 0 0 0 0 0 0 0 0 0 0 0 0 0 0 0 0 0 0 0 0 0 0 0 0 0 0 0
    0 0 0 0 0 0 0 0 0 0 0 0 0 0 0 0 0 0 0 0 0 0 0 0 0 0 0 0 0 0 0 0 0 0
    0 0 0 0 0 0 0 0 0 0 0 0 0 0 0 0 0 0 0 0 0 0 0 0 0 0 0 0 0 0 0 0 0 0
    0 0 0 0 0 0 0 0 0 0 0 0 0 0 0 0 0 0 0 0 0 0 0 0 0 0 0 0 0 0 0 0 0 0
    0 0 0 0 0 0 0 0 0 0 0 0 0 0 0 0 0 0 0 0 0 0 0 0 0 0 0 0 0 0 0 0 0 0
    0 0 0 0 0 0 0 0 0 0 0 0 0 0 0 0 0 0 0 0 0 0 0 0 0 0 0 0 0 0 0 0 0 0
    0 0 0 0 0 0 0 0 0 0 0 0 0 0 0 0 0 0 0 0 0 0 0 0 0 0 0 0 0 0 0 0 0 0
    0 0 0 0 0 0 0 0 0 0 0 0 0 0 0 0 0 0 0 0 0 0 0 0 0 0 0 0 0 0 0 0 0 0
    0 0 0 0 0 0 0 0 0 0 0 0 0 0 0 0 0 0 0 0 0 0 0 0 0 0 0 0 0 0 0 0 0 0
    0 0 0 0 0 0 0 0 0 0 0 0 0 0 0 0 0 0 0 0 0 0 0 0 0 0 0 0 0 0 0 0 0 0
    0 0 0 0 0 0 0 0 0 0 0 0 0 0 0 0 0 0 0 0 0 0 0 0 0 0 0 0 0 0 0 0 0 0
    0 0 0 0 0 0 0 0 0 0 0 0 0 0 0 0 0 0 0 0 0 0 0 0 0 0 0 0 0 0 0 0 0 0
    0 0 0 0 0 0 0 0 0 0 0 0 0 0 0 0 0 0 0 0 0 0 0 0 0 0 0 0 0 0 0 0 0 0
    0 0 0 0 0 0 0 0 0 0 0 0 0 0 0 0 0 0 0 0 0 0 0 0 0 0 0 0 0 0 0 0 0 0
    0 0 0 0 0 0 0 0 0 0 0 0 0 0 0 0 0 0 0 0 0 0 0 0 0 0 0 0 0 0 0 0 0 0
    0 0 0 0 0 0 0 0 0 0 0 0 0 0 0 0 0 0 0 0 0 0 0 0 0 0 0 0 0 0 0 0 0 0
    0 0 0 0 0 0 0 0 0 0 0 0 0 0 0 0 0 0 0 0 0 0 0 0 0 0 0 0 0 0 0 0 0 0
    0 0 0 0 0 0 0 0 0 0 0 0 0 0 0 0 0 0 0 0 0 0 0 0 0 0 0 0 0 0 0 0 0 0
    0 0 0 0 0 0 0 0 0 0 0 0 0 0 0 0 0 0 0 0 0 0 0 0 0 0 0 0 0 0 0 0 0 0
    0 0 0 0 0 0 0 0 0 0 0 0 0 0 0 0 0 0 0 0 0 0 0 0 0 0 0 0 0 0 0 0 0 0
    0 0 0 0 0 0 0 0 0 0 0 0 0 0 0 0 0 0 0 0 0 0 0 0 0 0 0 0 0 0 0 0 0 0
    0 0 0 0 0 0 0 0 0 0 0 0 0 0 0 0 0 0 0 0 0 0 0 0 0 0 0 0 0 0 0 0 0 0
    0 0 0 0 0 0 0 0 0 0 0 0 0 0 0 0 0 0 0 0 0 0 0 0 0 0 0 0 0 0 0 0 0 0
    0 0 0 0 0 0 0 0 0 0 0 0 0 0 0 0 0 0 0 0 0 0 0 0 0 0 0 0 0 0 0 0 0 0
    0 0 0 0 0 0 0 0 0 0 0 0 0 0 0 0 0 0 0 0 0 0 0 0 0 0 0 0 0 0 0 0 0 0
    0 0 0 0 0 0 0 0 0 0 0 0 0 0 0 0 0 0 0 0 0 0 0 0 0 0 0 0 0 0 0 0 0 0
    0 0 0 0 0 0 0 0 0 0 0 0 0 0 0 0 0 0 0 0 0 0 0 0 0 0 0 0 0 0 0 0 0 0
    0 0 0 0 0 0 0 0 0 0 0 0 0 0 0 0 0 0 0 0 0 0 0 0 0 0 0 0 0 0 0 0 0 0
    0 0 0 0 0 0 0 0 0 0 0 0 0 0 0 0 0 0 0 0 0 0 0 0 0 0 0 0 0 0 0 0 0 0
    0 0 0 0 0 0 0 0 0 0 0 0 0 0 0 0 0 0 0 0 0 0 0 0 0 0 0 0 0 0 0 0 0 0
    0 0 0 0 0 10</cat_ofs>
  <cat_map>
    0 1 2 3 4 5 6 7 8 9</cat_map>
  <class_labels>
    0 1</class_labels>
  <missing_subst>
    0. 0. 0. 0. 0. 0. 0. 0. 0. 0. 0. 0. 0. 0. 0. 0. 0. 0. 0. 0. 0. 0. 0.
    0. 0. 0. 0. 0. 0. 0. 0. 0. 0. 0. 0. 0. 0. 0. 0. 0. 0. 0. 0. 0. 0. 0.
    0. 0. 0. 0. 0. 0. 0. 0. 0. 0. 0. 0. 0. 0. 0. 0. 0. 0. 0. 0. 0. 0. 0.
    0. 0. 0. 0. 0. 0. 0. 0. 0. 0. 0. 0. 0. 0. 0. 0. 0. 0. 0. 0. 0. 0. 0.
    0. 0. 0. 0. 0. 0. 0. 0. 0. 0. 0. 0. 0. 0. 0. 0. 0. 0. 0. 0. 0. 0. 0.
    0. 0. 0. 0. 0. 0. 0. 0. 0. 0. 0. 0. 0. 0. 0. 0. 0. 0. 0. 0. 0. 0. 0.
    0. 0. 0. 0. 0. 0. 0. 0. 0. 0. 0. 0. 0. 0. 0. 0. 0. 0. 0. 0. 0. 0. 0.
    0. 0. 0. 0. 0. 0. 0. 0. 0. 0. 0. 0. 0. 0. 0. 0. 0. 0. 0. 0. 0. 0. 0.
    0. 0. 0. 0. 0. 0. 0. 0. 0. 0. 0. 0. 0. 0. 0. 0. 0. 0. 0. 0. 0. 0. 0.
    0. 0. 0. 0. 0. 0. 0. 0. 0. 0. 0. 0. 0. 0. 0. 0. 0. 0. 0. 0. 0. 0. 0.
    0. 0. 0. 0. 0. 0. 0. 0. 0. 0. 0. 0. 0. 0. 0. 0. 0. 0. 0. 0. 0. 0. 0.
    0. 0. 0. 0. 0. 0. 0. 0. 0. 0. 0. 0. 0. 0. 0. 0. 0. 0. 0. 0. 0. 0. 0.
    0. 0. 0. 0. 0. 0. 0. 0. 0. 0. 0. 0. 0. 0. 0. 0. 0. 0. 0. 0. 0. 0. 0.
    0. 0. 0. 0. 0. 0. 0. 0. 0. 0. 0. 0. 0. 0. 0. 0. 0. 0. 0. 0. 0. 0. 0.
    0. 0. 0. 0. 0. 0. 0. 0. 0. 0. 0. 0. 0. 0. 0. 0. 0. 0. 0. 0. 0. 0. 0.
    0. 0. 0. 0. 0. 0. 0. 0. 0. 0. 0. 0. 0. 0. 0. 0. 0. 0. 0. 0. 0. 0. 0.
    0. 0. 0. 0. 0. 0. 0. 0. 0. 0. 0. 0. 0. 0. 0. 0. 0. 0. 0. 0. 0. 0. 0.
    0. 0. 0. 0. 0. 0. 0. 0. 0. 0. 0. 0. 0. 0. 0. 0. 0. 0. 0. 0. 0. 0. 0.
    0. 0. 0. 0. 0. 0. 0. 0. 0. 0. 0. 0. 0. 0. 0. 0. 0. 0. 0. 0. 0. 0. 0.
    0. 0. 0. 0. 0. 0. 0. 0. 0. 0. 0. 0. 0. 0. 0. 0. 0. 0. 0. 0. 0. 0. 0.
    0. 0. 0. 0. 0. 0. 0. 0. 0. 0. 0. 0. 0. 0. 0. 0. 0. 0. 0. 0. 0. 0. 0.
    0. 0. 0. 0. 0. 0. 0. 0. 0. 0. 0. 0. 0. 0. 0. 0. 0. 0. 0. 0. 0. 0. 0.
    0. 0. 0. 0. 0. 0. 0. 0. 0. 0. 0. 0. 0. 0. 0. 0. 0. 0. 0. 0. 0. 0. 0.
    0. 0. 0. 0. 0. 0. 0. 0. 0. 0. 0. 0. 0. 0. 0. 0. 0. 0. 0. 0. 0. 0. 0.
    0. 0. 0. 0. 0. 0. 0. 0. 0. 0. 0. 0. 0. 0. 0. 0. 0. 0. 0. 0. 0. 0. 0.
    0. 0. 0. 0. 0. 0. 0. 0. 0. 0. 0. 0. 0. 0. 0. 0. 0. 0. 0. 0. 0. 0. 0.
    0. 0. 0. 0. 0. 0. 0. 0. 0. 0. 0. 0. 0. 0. 0. 0. 0. 0. 0. 0. 0. 0. 0.
    0. 0. 0. 0. 0. 0. 0. 0. 0. 0. 0. 0. 0. 0. 0. 0. 0. 0. 0. 0. 0. 0. 0.
    0. 0. 0. 0. 0. 0. 0. 0. 0. 0. 0. 0. 0. 0. 0. 0. 0. 0. 0. 0. 0. 0. 0.
    0. 0. 0. 0. 0. 0. 0. 0. 0. 0. 0. 0. 0. 0. 0. 0. 0. 0. 0. 0. 0. 0. 0.
    0. 0. 0. 0. 0. 0. 0. 0. 0. 0. 0. 0. 0. 0. 0. 0. 0. 0. 0. 0. 0. 0. 0.
    0. 0. 0. 0. 0. 0. 0. 0. 0. 0. 0. 0. 0. 0. 0. 0. 0. 0. 0. 0. 0. 0. 0.
    0. 0. 0. 0. 0. 0. 0. 0. 0. 0. 0. 0. 0. 0. 0. 0. 0. 0. 0. 0. 0. 0. 0.
    0. 0. 0. 0. 0. 0. 0. 0. 0. 0. 0. 0. 0. 0. 0. 0. 0. 0. 0. 0. 0. 0. 0.
    0. 0. -1. 0.</missing_subst>
  <ntrees>95</ntrees>
  <trees>
    <_>
      <nodes>
        <_>
          <depth>0</depth>
          <value>5.2631578947856777e-02</value>
          <splits>
            <_><var>784</var>
              <quality>3.2949999440461397e-03</quality>
              <not_in>
                1 7</not_in></_></splits></_>
        <_>
          <depth>1</depth>
          <value>4.0892110966626469e-02</value>
          <splits>
            <_><var>402</var>
              <quality>1.6454672440886497e-02</quality>
              <le>5.0000000000000000e-01</le></_></splits></_>
        <_>
          <depth>2</depth>
          <value>-1.2274635186911056e-01</value>
          <splits>
            <_><var>578</var>
              <quality>2.3105047643184662e-02</quality>
              <le>5.0000000000000000e-01</le></_></splits></_>
        <_>
          <depth>3</depth>
          <value>-3.5203925016708226e-01</value>
          <splits>
            <_><var>485</var>
              <quality>3.3095844089984894e-02</quality>
              <le>5.0000000000000000e-01</le></_></splits></_>
        <_>
          <depth>4</depth>
          <value>-5.2707856597836933e-01</value>
          <splits>
            <_><var>375</var>
              <quality>4.3109446763992310e-02</quality>
              <le>5.0000000000000000e-01</le></_></splits></_>
        <_>
          <depth>5</depth>
          <value>-6.8191457134044176e-01</value></_>
        <_>
          <depth>5</depth>
          <value>2.9216693309754731e-02</value></_>
        <_>
          <depth>4</depth>
          <value>6.1395836977446133e-02</value>
          <splits>
            <_><var>784</var>
              <quality>1.0344341397285461e-02</quality>
              <in>
                0 3 5 6</in></_></splits></_>
        <_>
          <depth>5</depth>
          <value>-5.9568290144087577e-01</value></_>
        <_>
          <depth>5</depth>
          <value>3.6958141686152823e-01</value></_>
        <_>
          <depth>3</depth>
          <value>1.1710378082438921e-01</value>
          <splits>
            <_><var>784</var>
              <quality>1.6463870182633400e-02</quality>
              <not_in>
                0 2 3</not_in></_></splits></_>
        <_>
          <depth>4</depth>
          <value>-1.8599232151982822e-01</value>
          <splits>
            <_><var>595</var>
              <quality>7.8396946191787720e-03</quality>
              <le>4.5000000000000000e+00</le></_></splits></_>
        <_>
          <depth>5</depth>
          <value>1.2669931171451212e-03</value></_>
        <_>
          <depth>5</depth>
          <value>-5.3083617101779246e-01</value></_>
        <_>
          <depth>4</depth>
          <value>4.0887194112450520e-01</value>
          <splits>
            <_><var>597</var>
              <quality>1.8897153437137604e-02</quality>
              <le>5.0000000000000000e-01</le></_></splits></_>
        <_>
          <depth>5</depth>
          <value>-3.6347517730485911e-02</value></_>
        <_>
          <depth>5</depth>
          <value>5.5021741883765185e-01</value></_>
        <_>
          <depth>2</depth>
          <value>1.5762887791250044e-01</value>
          <splits>
            <_><var>784</var>
              <quality>1.7278289422392845e-02</quality>
              <in>
                0 1 2 3 7 8</in></_></splits></_>
        <_>
          <depth>3</depth>
          <value>3.3304795246313385e-02</value>
          <splits>
            <_><var>625</var>
              <quality>2.2579386830329895e-02</quality>
              <le>5.0000000000000000e-01</le></_></splits></_>
        <_>
          <depth>4</depth>
          <value>-3.4434291672001682e-01</value>
          <splits>
            <_><var>153</var>
              <quality>1.7661733552813530e-02</quality>
              <le>3.5000000000000000e+00</le></_></splits></_>
        <_>
          <depth>5</depth>
          <value>-5.7368902837789670e-01</value></_>
        <_>
          <depth>5</depth>
          <value>2.1485194971969847e-03</value></_>
        <_>
          <depth>4</depth>
          <value>3.1925256753052622e-01</value>
          <splits>
            <_><var>784</var>
              <quality>1.6375541687011719e-02</quality>
              <in>
                2</in></_></splits></_>
        <_>
          <depth>5</depth>
          <value>-1.0657139099560044e-01</value></_>
        <_>
          <depth>5</depth>
          <value>4.0639859324283861e-01</value></_>
        <_>
          <depth>3</depth>
          <value>2.5841353174311604e-01</value>
          <splits>
            <_><var>625</var>
              <quality>2.8994385153055191e-02</quality>
              <le>4.5000000000000000e+00</le></_></splits></_>
        <_>
          <depth>4</depth>
          <value>4.0746295883479888e-01</value>
          <splits>
            <_><var>784</var>
              <quality>3.7652522325515747e-02</quality>
              <in>
                5</in></_></splits></_>
        <_>
          <depth>5</depth>
          <value>-1.3169417312228479e-01</value></_>
        <_>
          <depth>5</depth>
          <value>5.0294050984780470e-01</value></_>
        <_>
          <depth>4</depth>
          <value>-5.5506344649529082e-02</value>
          <splits>
            <_><var>784</var>
              <quality>1.4277725480496883e-02</quality>
              <in>
                4 6 9</in></_></splits></_>
        <_>
          <depth>5</depth>
          <value>-3.9909358467441119e-01</value></_>
        <_>
          <depth>5</depth>
          <value>4.4109817840180154e-01</value></_>
        <_>
          <depth>1</depth>
          <value>9.7345431383379033e-02</value>
          <splits>
            <_><var>402</var>
              <quality>6.1754081398248672e-02</quality>
              <le>1.5000000000000000e+00</le></_></splits></_>
        <_>
          <depth>2</depth>
          <value>4.5294421330802748e-01</value>
          <splits>
            <_><var>539</var>
              <quality>5.3041752427816391e-02</quality>
              <le>5.0000000000000000e-01</le></_></splits></_>
        <_>
          <depth>3</depth>
          <value>5.9635338242958602e-01</value>
          <splits>
            <_><var>579</var>
              <quality>5.4147575050592422e-02</quality>
              <le>5.0000000000000000e-01</le></_></splits></_>
        <_>
          <depth>4</depth>
          <value>6.7766003053583146e-01</value>
          <splits>
            <_><var>456</var>
              <quality>5.7636119425296783e-02</quality>
              <le>1.0150000000000000e+02</le></_></splits></_>
        <_>
          <depth>5</depth>
          <value>7.0914125281346529e-01</value></_>
        <_>
          <depth>5</depth>
          <value>-4.3262411347516916e-01</value></_>
        <_>
          <depth>4</depth>
          <value>-2.2579663852766485e-01</value>
          <splits>
            <_><var>179</var>
              <quality>3.7357551045715809e-03</quality>
              <le>5.0000000000000000e-01</le></_></splits></_>
        <_>
          <depth>5</depth>
          <value>3.3030499675533126e-01</value></_>
        <_>
          <depth>5</depth>
          <value>-7.1653543307088019e-01</value></_>
        <_>
          <depth>3</depth>
          <value>-6.7740195285106763e-01</value>
          <splits>
            <_><var>155</var>
              <quality>9.6359169110655785e-03</quality>
              <le>5.0000000000000000e-01</le></_></splits></_>
        <_>
          <depth>4</depth>
          <value>-1.9953257376569364e-01</value>
          <splits>
            <_><var>482</var>
              <quality>1.9940568599849939e-03</quality>
              <le>1.</le></_></splits></_>
        <_>
          <depth>5</depth>
          <value>2.6919140225179095e-01</value></_>
        <_>
          <depth>5</depth>
          <value>-8.2300884955752007e-01</value></_>
        <_>
          <depth>4</depth>
          <value>-9.5723205884868989e-01</value>
          <splits>
            <_><var>71</var>
              <quality>9.5081450417637825e-03</quality>
              <le>2.1350000000000000e+02</le></_></splits></_>
        <_>
          <depth>5</depth>
          <value>-9.6882577069622611e-01</value></_>
        <_>
          <depth>5</depth>
          <value>-2.0979020979020890e-02</value></_>
        <_>
          <depth>2</depth>
          <value>-7.1112154436753638e-01</value>
          <splits>
            <_><var>740</var>
              <quality>3.5187337547540665e-02</quality>
              <le>1.5000000000000000e+00</le></_></splits></_>
        <_>
          <depth>3</depth>
          <value>-7.6217160323139699e-01</value>
          <splits>
            <_><var>267</var>
              <quality>3.7010934203863144e-02</quality>
              <le>1.2450000000000000e+02</le></_></splits></_>
        <_>
          <depth>4</depth>
          <value>-9.0380574363792276e-01</value>
          <splits>
            <_><var>743</var>
              <quality>3.1082319095730782e-02</quality>
              <le>3.5500000000000000e+01</le></_></splits></_>
        <_>
          <depth>5</depth>
          <value>-9.1614355087079580e-01</value></_>
        <_>
          <depth>5</depth>
          <value>-5.6910569105691568e-02</value></_>
        <_>
          <depth>4</depth>
          <value>-5.2772946859904923e-01</value>
          <splits>
            <_><var>523</var>
              <quality>8.2362135872244835e-03</quality>
              <le>5.0000000000000000e-01</le></_></splits></_>
        <_>
          <depth>5</depth>
          <value>-2.6498489213690302e-01</value></_>
        <_>
          <depth>5</depth>
          <value>-8.4884919271728709e-01</value></_>
        <_>
          <depth>3</depth>
          <value>2.3350390519795142e-01</value>
          <splits>
            <_><var>784</var>
              <quality>1.5954494010657072e-03</quality>
              <in>
                1</in></_></splits></_>
        <_>
          <depth>4</depth>
          <value>-1.</value></_>
        <_>
          <depth>4</depth>
          <value>5.8642189123656996e-01</value>
          <splits>
            <_><var>405</var>
              <quality>1.5854171942919493e-03</quality>
              <le>1.7500000000000000e+01</le></_></splits></_>
        <_>
          <depth>5</depth>
          <value>9.2326372025254799e-01</value></_>
        <_>
          <depth>5</depth>
          <value>-2.5120772946860415e-01</value></_></nodes></_>
    <_>
      <nodes>
        <_>
          <depth>0</depth>
          <value>2.3649190380286622e-02</value>
          <splits>
            <_><var>784</var>
              <quality>6.3292132690548897e-03</quality>
              <in>
                0 3 4 5 6 9</in></_></splits></_>
        <_>
          <depth>1</depth>
          <value>-3.4772374060303937e-02</value>
          <splits>
            <_><var>489</var>
              <quality>1.3196152634918690e-02</quality>
              <le>4.7500000000000000e+01</le></_></splits></_>
        <_>
          <depth>2</depth>
          <value>8.5618852195911643e-02</value>
          <splits>
            <_><var>784</var>
              <quality>1.7494823783636093e-02</quality>
              <in>
                4 6 9</in></_></splits></_>
        <_>
          <depth>3</depth>
          <value>-1.6350097433102817e-01</value>
          <splits>
            <_><var>624</var>
              <quality>1.7061918973922729e-02</quality>
              <le>1.3500000000000000e+01</le></_></splits></_>
        <_>
          <depth>4</depth>
          <value>-1.0168335987303217e-02</value>
          <splits>
            <_><var>381</var>
              <quality>4.9375244416296482e-03</quality>
              <le>4.2500000000000000e+01</le></_></splits></_>
        <_>
          <depth>5</depth>
          <value>-3.5900549985047159e-01</value></_>
        <_>
          <depth>5</depth>
          <value>1.1323269634662453e-01</value></_>
        <_>
          <depth>4</depth>
          <value>-7.6373837810292355e-01</value>
          <splits>
            <_><var>103</var>
              <quality>1.8670992925763130e-02</quality>
              <le>1.5000000000000000e+00</le></_></splits></_>
        <_>
          <depth>5</depth>
          <value>-8.1998516342401617e-01</value></_>
        <_>
          <depth>5</depth>
          <value>2.2213857878008739e-01</value></_>
        <_>
          <depth>3</depth>
          <value>2.5181394618349301e-01</value>
          <splits>
            <_><var>459</var>
              <quality>2.2171933203935623e-02</quality>
              <le>9.4500000000000000e+01</le></_></splits></_>
        <_>
          <depth>4</depth>
          <value>3.4474233089033623e-01</value>
          <splits>
            <_><var>741</var>
              <quality>2.6825284585356712e-02</quality>
              <le>5.0000000000000000e-01</le></_></splits></_>
        <_>
          <depth>5</depth>
          <value>3.7170240975528501e-01</value></_>
        <_>
          <depth>5</depth>
          <value>-8.7649273591466925e-01</value></_>
        <_>
          <depth>4</depth>
          <value>-1.7382704756487469e-01</value>
          <splits>
            <_><var>656</var>
              <quality>4.0847803466022015e-03</quality>
              <le>4.5000000000000000e+00</le></_></splits></_>
        <_>
          <depth>5</depth>
          <value>-5.3607909953797739e-01</value></_>
        <_>
          <depth>5</depth>
          <value>3.4975067895348037e-02</value></_>
        <_>
          <depth>2</depth>
          <value>-2.0245525669002729e-01</value>
          <splits>
            <_><var>784</var>
              <quality>3.2029911875724792e-02</quality>
              <in>
                0 3 5</in></_></splits></_>
        <_>
          <depth>3</depth>
          <value>-5.7140425463707023e-01</value>
          <splits>
            <_><var>408</var>
              <quality>4.0772654116153717e-02</quality>
              <le>1.5000000000000000e+00</le></_></splits></_>
        <_>
          <depth>4</depth>
          <value>-8.8735291049701154e-02</value>
          <splits>
            <_><var>784</var>
              <quality>4.4653150252997875e-03</quality>
              <in>
                0 3</in></_></splits></_>
        <_>
          <depth>5</depth>
          <value>-4.5652211160129369e-01</value></_>
        <_>
          <depth>5</depth>
          <value>3.3430460888014885e-01</value></_>
        <_>
          <depth>4</depth>
          <value>-7.5838008723358119e-01</value>
          <splits>
            <_><var>784</var>
              <quality>4.1724465787410736e-02</quality>
              <in>
                0 5</in></_></splits></_>
        <_>
          <depth>5</depth>
          <value>-8.5691595782373753e-01</value></_>
        <_>
          <depth>5</depth>
          <value>-5.9044453873410319e-01</value></_>
        <_>
          <depth>3</depth>
          <value>2.3270229026161510e-02</value>
          <splits>
            <_><var>400</var>
              <quality>1.7568947747349739e-02</quality>
              <le>5.0000000000000000e-01</le></_></splits></_>
        <_>
          <depth>4</depth>
          <value>-3.4150928697446575e-01</value>
          <splits>
            <_><var>402</var>
              <quality>1.7664371058344841e-02</quality>
              <le>5.8500000000000000e+01</le></_></splits></_>
        <_>
          <depth>5</depth>
          <value>-6.3519607356801144e-01</value></_>
        <_>
          <depth>5</depth>
          <value>9.5297924617149657e-02</value></_>
        <_>
          <depth>4</depth>
          <value>3.2297292254114285e-01</value>
          <splits>
            <_><var>402</var>
              <quality>1.1224719695746899e-02</quality>
              <le>1.5000000000000000e+00</le></_></splits></_>
        <_>
          <depth>5</depth>
          <value>5.9531021299101794e-01</value></_>
        <_>
          <depth>5</depth>
          <value>2.3648874676876969e-01</value></_>
        <_>
          <depth>1</depth>
          <value>1.2584255793841573e-01</value>
          <splits>
            <_><var>489</var>
              <quality>2.3680113255977631e-02</quality>
              <le>5.0000000000000000e-01</le></_></splits></_>
        <_>
          <depth>2</depth>
          <value>-2.0197515273011626e-01</value>
          <splits>
            <_><var>784</var>
              <quality>2.7382317930459976e-02</quality>
              <in>
                1 2 8</in></_></splits></_>
        <_>
          <depth>3</depth>
          <value>-4.6396677789866791e-01</value>
          <splits>
            <_><var>487</var>
              <quality>2.9327791184186935e-02</quality>
              <le>1.5000000000000000e+00</le></_></splits></_>
        <_>
          <depth>4</depth>
          <value>-6.7920474447627299e-01</value>
          <splits>
            <_><var>318</var>
              <quality>3.1233554705977440e-02</quality>
              <le>5.0000000000000000e-01</le></_></splits></_>
        <_>
          <depth>5</depth>
          <value>-4.5645827068032446e-01</value></_>
        <_>
          <depth>5</depth>
          <value>-8.4842402640681513e-01</value></_>
        <_>
          <depth>4</depth>
          <value>1.4292779497990396e-01</value>
          <splits>
            <_><var>405</var>
              <quality>3.8404811639338732e-03</quality>
              <le>5.0500000000000000e+01</le></_></splits></_>
        <_>
          <depth>5</depth>
          <value>-6.5732017799961251e-01</value></_>
        <_>
          <depth>5</depth>
          <value>3.3359498249873487e-01</value></_>
        <_>
          <depth>3</depth>
          <value>5.5940903682482379e-01</value>
          <splits>
            <_><var>405</var>
              <quality>1.7807411029934883e-02</quality>
              <le>2.5000000000000000e+00</le></_></splits></_>
        <_>
          <depth>4</depth>
          <value>8.3144016798630993e-01</value>
          <splits>
            <_><var>154</var>
              <quality>1.8944980576634407e-02</quality>
              <le>5.0000000000000000e-01</le></_></splits></_>
        <_>
          <depth>5</depth>
          <value>9.0926659809752064e-01</value></_>
        <_>
          <depth>5</depth>
          <value>-7.0548530671348775e-01</value></_>
        <_>
          <depth>4</depth>
          <value>-5.3388713242604924e-01</value>
          <splits>
            <_><var>412</var>
              <quality>3.1471548136323690e-03</quality>
              <le>1.3500000000000000e+01</le></_></splits></_>
        <_>
          <depth>5</depth>
          <value>-8.2614186726906569e-01</value></_>
        <_>
          <depth>5</depth>
          <value>3.4328933458057959e-01</value></_>
        <_>
          <depth>2</depth>
          <value>2.8241421149185963e-01</value>
          <splits>
            <_><var>372</var>
              <quality>2.6126315817236900e-02</quality>
              <le>7.0500000000000000e+01</le></_></splits></_>
        <_>
          <depth>3</depth>
          <value>3.5390345225309594e-01</value>
          <splits>
            <_><var>784</var>
              <quality>3.4614127129316330e-02</quality>
              <in>
                7</in></_></splits></_>
        <_>
          <depth>4</depth>
          <value>-9.1627391291820015e-02</value>
          <splits>
            <_><var>377</var>
              <quality>1.8356647342443466e-02</quality>
              <le>4.5000000000000000e+00</le></_></splits></_>
        <_>
          <depth>5</depth>
          <value>6.4377370653659149e-01</value></_>
        <_>
          <depth>5</depth>
          <value>-7.4657743394755971e-01</value></_>
        <_>
          <depth>4</depth>
          <value>4.5434598796756381e-01</value>
          <splits>
            <_><var>710</var>
              <quality>4.2869523167610168e-02</quality>
              <le>1.5000000000000000e+00</le></_></splits></_>
        <_>
          <depth>5</depth>
          <value>5.0679705670292985e-01</value></_>
        <_>
          <depth>5</depth>
          <value>-5.2899612254735262e-01</value></_>
        <_>
          <depth>3</depth>
          <value>-1.3353362367785521e-01</value>
          <splits>
            <_><var>456</var>
              <quality>6.9879293441772461e-03</quality>
              <le>5.0500000000000000e+01</le></_></splits></_>
        <_>
          <depth>4</depth>
          <value>2.7781806805921111e-01</value>
          <splits>
            <_><var>784</var>
              <quality>4.6698441728949547e-03</quality>
              <in>
                1 2</in></_></splits></_>
        <_>
          <depth>5</depth>
          <value>-3.9105624154624846e-01</value></_>
        <_>
          <depth>5</depth>
          <value>5.4756240803108824e-01</value></_>
        <_>
          <depth>4</depth>
          <value>-5.7561235691758461e-01</value>
          <splits>
            <_><var>377</var>
              <quality>7.2283390909433365e-03</quality>
              <le>7.3500000000000000e+01</le></_></splits></_>
        <_>
          <depth>5</depth>
          <value>-7.4891093860972646e-01</value></_>
        <_>
          <depth>5</depth>
          <value>-1.4725497530313774e-02</value></_></nodes></_>
    <_>
      <nodes>
        <_>
          <depth>0</depth>
          <value>-6.9932614526780033e-03</value>
          <splits>
            <_><var>784</var>
              <quality>2.9949673917144537e-03</quality>
              <in>
                0 1 4 5 7 8</in></_></splits></_>
        <_>
          <depth>1</depth>
          <value>-5.6362399424763454e-02</value>
          <splits>
            <_><var>99</var>
              <quality>1.7603011801838875e-02</quality>
              <le>5.0000000000000000e-01</le></_></splits></_>
        <_>
          <depth>2</depth>
          <value>-1.1322571390308856e-02</value>
          <splits>
            <_><var>246</var>
              <quality>8.4871053695678711e-03</quality>
              <le>2.5000000000000000e+00</le></_></splits></_>
        <_>
          <depth>3</depth>
          <value>-8.7462931237318936e-02</value>
          <splits>
            <_><var>122</var>
              <quality>8.3860028535127640e-03</quality>
              <le>3.5000000000000000e+00</le></_></splits></_>
        <_>
          <depth>4</depth>
          <value>-4.9950835324693584e-02</value>
          <splits>
            <_><var>102</var>
              <quality>5.9383865445852280e-03</quality>
              <le>5.0000000000000000e-01</le></_></splits></_>
        <_>
          <depth>5</depth>
          <value>-2.7368860876520556e-02</value></_>
        <_>
          <depth>5</depth>
          <value>-7.1466797692218353e-01</value></_>
        <_>
          <depth>4</depth>
          <value>-4.8583486137769782e-01</value>
          <splits>
            <_><var>289</var>
              <quality>1.0540071874856949e-02</quality>
              <le>3.5000000000000000e+00</le></_></splits></_>
        <_>
          <depth>5</depth>
          <value>-7.3819545025989175e-01</value></_>
        <_>
          <depth>5</depth>
          <value>-1.1361812352006184e-01</value></_>
        <_>
          <depth>3</depth>
          <value>2.1058834271283217e-01</value>
          <splits>
            <_><var>784</var>
              <quality>1.4431073330342770e-02</quality>
              <in>
                1</in></_></splits></_>
        <_>
          <depth>4</depth>
          <value>-7.9619052449464200e-01</value>
          <splits>
            <_><var>324</var>
              <quality>6.0258791781961918e-03</quality>
              <le>2.3250000000000000e+02</le></_></splits></_>
        <_>
          <depth>5</depth>
          <value>-9.5596163075273299e-01</value></_>
        <_>
          <depth>5</depth>
          <value>-1.1528073086763307e-01</value></_>
        <_>
          <depth>4</depth>
          <value>2.7909256420193218e-01</value>
          <splits>
            <_><var>563</var>
              <quality>1.2135531753301620e-02</quality>
              <le>5.0000000000000000e-01</le></_></splits></_>
        <_>
          <depth>5</depth>
          <value>3.0122893980295568e-01</value></_>
        <_>
          <depth>5</depth>
          <value>-7.9977244951712356e-01</value></_>
        <_>
          <depth>2</depth>
          <value>-7.1998793118881688e-01</value>
          <splits>
            <_><var>460</var>
              <quality>1.9410988315939903e-02</quality>
              <le>6.5000000000000000e+00</le></_></splits></_>
        <_>
          <depth>3</depth>
          <value>-4.1426200622569676e-01</value>
          <splits>
            <_><var>784</var>
              <quality>3.8107302971184254e-03</quality>
              <in>
                4 7 8</in></_></splits></_>
        <_>
          <depth>4</depth>
          <value>-8.8873214061830419e-01</value>
          <splits>
            <_><var>200</var>
              <quality>3.8513827603310347e-03</quality>
              <le>1.4500000000000000e+01</le></_></splits></_>
        <_>
          <depth>5</depth>
          <value>-9.1127686645913508e-01</value></_>
        <_>
          <depth>5</depth>
          <value>9.3909091730128058e-01</value></_>
        <_>
          <depth>4</depth>
          <value>-1.3754017179442607e-01</value>
          <splits>
            <_><var>410</var>
              <quality>9.1845472343266010e-04</quality>
              <le>1.5000000000000000e+00</le></_></splits></_>
        <_>
          <depth>5</depth>
          <value>2.7135194137139779e-01</value></_>
        <_>
          <depth>5</depth>
          <value>-3.7395560562888702e-01</value></_>
        <_>
          <depth>3</depth>
          <value>-9.0095124280197791e-01</value>
          <splits>
            <_><var>295</var>
              <quality>1.7397545278072357e-02</quality>
              <le>1.1950000000000000e+02</le></_></splits></_>
        <_>
          <depth>4</depth>
          <value>-9.3254687860781060e-01</value>
          <splits>
            <_><var>285</var>
              <quality>1.6267223283648491e-02</quality>
              <le>32.</le></_></splits></_>
        <_>
          <depth>5</depth>
          <value>-9.3941942235056386e-01</value></_>
        <_>
          <depth>5</depth>
          <value>1.3342778571722624e-01</value></_>
        <_>
          <depth>4</depth>
          <value>-6.8424477198156575e-01</value>
          <splits>
            <_><var>514</var>
              <quality>1.4757711905986071e-03</quality>
              <le>2.</le></_></splits></_>
        <_>
          <depth>5</depth>
          <value>-4.5253452112172750e-02</value></_>
        <_>
          <depth>5</depth>
          <value>-8.0550648767289523e-01</value></_>
        <_>
          <depth>1</depth>
          <value>5.5823921546108012e-02</value>
          <splits>
            <_><var>317</var>
              <quality>1.6126938164234161e-02</quality>
              <le>2.5000000000000000e+00</le></_></splits></_>
        <_>
          <depth>2</depth>
          <value>2.3260210056028552e-01</value>
          <splits>
            <_><var>784</var>
              <quality>2.0502677187323570e-02</quality>
              <in>
                9</in></_></splits></_>
        <_>
          <depth>3</depth>
          <value>-2.2067312605538653e-01</value>
          <splits>
            <_><var>541</var>
              <quality>7.6858168467879295e-03</quality>
              <le>6.5000000000000000e+00</le></_></splits></_>
        <_>
          <depth>4</depth>
          <value>9.1141747670886300e-02</value>
          <splits>
            <_><var>212</var>
              <quality>3.3068945631384850e-03</quality>
              <le>1.2500000000000000e+01</le></_></splits></_>
        <_>
          <depth>5</depth>
          <value>-5.2995244781297746e-01</value></_>
        <_>
          <depth>5</depth>
          <value>3.1719269214826801e-01</value></_>
        <_>
          <depth>4</depth>
          <value>-7.7291760813116162e-01</value>
          <splits>
            <_><var>369</var>
              <quality>9.2886956408619881e-03</quality>
              <le>8.</le></_></splits></_>
        <_>
          <depth>5</depth>
          <value>-8.9984956104462210e-01</value></_>
        <_>
          <depth>5</depth>
          <value>3.4869357102700621e-01</value></_>
        <_>
          <depth>3</depth>
          <value>3.1671142292748056e-01</value>
          <splits>
            <_><var>522</var>
              <quality>2.6555782184004784e-02</quality>
              <le>1.5000000000000000e+00</le></_></splits></_>
        <_>
          <depth>4</depth>
          <value>5.8354799835586828e-02</value>
          <splits>
            <_><var>178</var>
              <quality>8.1410761922597885e-03</quality>
              <le>5.0000000000000000e-01</le></_></splits></_>
        <_>
          <depth>5</depth>
          <value>-1.9450990047077196e-01</value></_>
        <_>
          <depth>5</depth>
          <value>4.9396728734959999e-01</value></_>
        <_>
          <depth>4</depth>
          <value>4.7663663425452529e-01</value>
          <splits>
            <_><var>291</var>
              <quality>2.9897134751081467e-02</quality>
              <le>1.3450000000000000e+02</le></_></splits></_>
        <_>
          <depth>5</depth>
          <value>5.5736228338832139e-01</value></_>
        <_>
          <depth>5</depth>
          <value>9.3138543143512040e-02</value></_>
        <_>
          <depth>2</depth>
          <value>-1.4459206095137161e-01</value>
          <splits>
            <_><var>784</var>
              <quality>2.0337410271167755e-02</quality>
              <in>
                2 3</in></_></splits></_>
        <_>
          <depth>3</depth>
          <value>-5.3064968258907286e-01</value>
          <splits>
            <_><var>400</var>
              <quality>2.3723253980278969e-02</quality>
              <le>3.5000000000000000e+00</le></_></splits></_>
        <_>
          <depth>4</depth>
          <value>-2.5932586074229563e-01</value>
          <splits>
            <_><var>347</var>
              <quality>4.9467086791992188e-03</quality>
              <le>1.3500000000000000e+01</le></_></splits></_>
        <_>
          <depth>5</depth>
          <value>1.6642962473406875e-01</value></_>
        <_>
          <depth>5</depth>
          <value>-4.8099608024730556e-01</value></_>
        <_>
          <depth>4</depth>
          <value>-7.4125109581861570e-01</value>
          <splits>
            <_><var>290</var>
              <quality>2.3775661364197731e-02</quality>
              <le>3.5000000000000000e+00</le></_></splits></_>
        <_>
          <depth>5</depth>
          <value>-1.3258178997314057e-01</value></_>
        <_>
          <depth>5</depth>
          <value>-8.2919458255749501e-01</value></_>
        <_>
          <depth>3</depth>
          <value>6.9912150345299018e-02</value>
          <splits>
            <_><var>210</var>
              <quality>7.9232780262827873e-03</quality>
              <le>2.5000000000000000e+00</le></_></splits></_>
        <_>
          <depth>4</depth>
          <value>-2.9764026528164367e-01</value>
          <splits>
            <_><var>97</var>
              <quality>1.2335675768554211e-02</quality>
              <le>5.0000000000000000e-01</le></_></splits></_>
        <_>
          <depth>5</depth>
          <value>-5.7932709441681307e-01</value></_>
        <_>
          <depth>5</depth>
          <value>5.4491258683821786e-01</value></_>
        <_>
          <depth>4</depth>
          <value>2.2763501862041316e-01</value>
          <splits>
            <_><var>784</var>
              <quality>1.1378388851881027e-02</quality>
              <in>
                6</in></_></splits></_>
        <_>
          <depth>5</depth>
          <value>-1.1545286423442740e-01</value></_>
        <_>
          <depth>5</depth>
          <value>4.5261789149558695e-01</value></_></nodes></_>
    <_>
      <nodes>
        <_>
          <depth>0</depth>
          <value>-2.2400528951137342e-02</value>
          <splits>
            <_><var>101</var>
              <quality>3.6275046877563000e-03</quality>
              <le>1.5000000000000000e+00</le></_></splits></_>
        <_>
          <depth>1</depth>
          <value>-3.8893233355494321e-02</value>
          <splits>
            <_><var>784</var>
              <quality>5.2480651065707207e-03</quality>
              <in>
                6</in></_></splits></_>
        <_>
          <depth>2</depth>
          <value>-2.4850002092030513e-01</value>
          <splits>
            <_><var>542</var>
              <quality>2.6739612221717834e-02</quality>
              <le>1.5000000000000000e+00</le></_></splits></_>
        <_>
          <depth>3</depth>
          <value>-8.0173850913385669e-01</value>
          <splits>
            <_><var>98</var>
              <quality>2.8304621577262878e-02</quality>
              <le>5.0000000000000000e-01</le></_></splits></_>
        <_>
          <depth>4</depth>
          <value>-8.7129599017400750e-01</value>
          <splits>
            <_><var>94</var>
              <quality>2.9654078185558319e-02</quality>
              <le>1.</le></_></splits></_>
        <_>
          <depth>5</depth>
          <value>-9.0612631332812088e-01</value></_>
        <_>
          <depth>5</depth>
          <value>8.6728754328540136e-01</value></_>
        <_>
          <depth>4</depth>
          <value>7.1117403164975423e-01</value>
          <splits>
            <_><var>212</var>
              <quality>1.2695097830146551e-03</quality>
              <le>1.2500000000000000e+01</le></_></splits></_>
        <_>
          <depth>5</depth>
          <value>8.6700204976656126e-01</value></_>
        <_>
          <depth>5</depth>
          <value>-9.4135210421992455e-01</value></_>
        <_>
          <depth>3</depth>
          <value>2.3667980496022781e-01</value>
          <splits>
            <_><var>242</var>
              <quality>1.2858372181653976e-02</quality>
              <le>3.8500000000000000e+01</le></_></splits></_>
        <_>
          <depth>4</depth>
          <value>5.9181923825279692e-01</value>
          <splits>
            <_><var>268</var>
              <quality>1.3033820316195488e-02</quality>
              <le>2.5050000000000000e+02</le></_></splits></_>
        <_>
          <depth>5</depth>
          <value>6.7313974423496203e-01</value></_>
        <_>
          <depth>5</depth>
          <value>-7.5182269350035191e-01</value></_>
        <_>
          <depth>4</depth>
          <value>-4.4472356950517528e-01</value>
          <splits>
            <_><var>133</var>
              <quality>7.6466770842671394e-03</quality>
              <le>1.1500000000000000e+01</le></_></splits></_>
        <_>
          <depth>5</depth>
          <value>-7.2414958147759856e-01</value></_>
        <_>
          <depth>5</depth>
          <value>6.9861437693996886e-01</value></_>
        <_>
          <depth>2</depth>
          <value>-1.7599982968244769e-02</value>
          <splits>
            <_><var>69</var>
              <quality>5.8656800538301468e-03</quality>
              <le>1.5000000000000000e+00</le></_></splits></_>
        <_>
          <depth>3</depth>
          <value>-8.4802682394925655e-03</value>
          <splits>
            <_><var>246</var>
              <quality>2.0733359269797802e-03</quality>
              <le>2.5000000000000000e+00</le></_></splits></_>
        <_>
          <depth>4</depth>
          <value>1.9049664836890471e-02</value>
          <splits>
            <_><var>784</var>
              <quality>2.5210876483470201e-03</quality>
              <not_in>
                1 3 4</not_in></_></splits></_>
        <_>
          <depth>5</depth>
          <value>-2.4741544416377409e-02</value></_>
        <_>
          <depth>5</depth>
          <value>1.0546527779183219e-01</value></_>
        <_>
          <depth>4</depth>
          <value>-1.0145125156053529e-01</value>
          <splits>
            <_><var>784</var>
              <quality>6.0825520195066929e-03</quality>
              <in>
                1 2 3 7 9</in></_></splits></_>
        <_>
          <depth>5</depth>
          <value>-3.0291444942322138e-01</value></_>
        <_>
          <depth>5</depth>
          <value>1.5183681214409179e-02</value></_>
        <_>
          <depth>3</depth>
          <value>-7.9042205170913427e-01</value>
          <splits>
            <_><var>239</var>
              <quality>6.9047417491674423e-03</quality>
              <le>1.2500000000000000e+01</le></_></splits></_>
        <_>
          <depth>4</depth>
          <value>-9.1988755437131153e-01</value>
          <splits>
            <_><var>214</var>
              <quality>7.5558843091130257e-03</quality>
              <le>2.</le></_></splits></_>
        <_>
          <depth>5</depth>
          <value>-9.8292718706667470e-01</value></_>
        <_>
          <depth>5</depth>
          <value>3.8142274975731144e-01</value></_>
        <_>
          <depth>4</depth>
          <value>1.1983252454334417e-01</value>
          <splits>
            <_><var>784</var>
              <quality>7.7776465332135558e-04</quality>
              <in>
                3 4 5 7 8 9</in></_></splits></_>
        <_>
          <depth>5</depth>
          <value>-9.8491375805450598e-01</value></_>
        <_>
          <depth>5</depth>
          <value>7.1491809657431393e-01</value></_>
        <_>
          <depth>1</depth>
          <value>1.7863543406997939e-01</value>
          <splits>
            <_><var>784</var>
              <quality>2.6225589215755463e-02</quality>
              <in>
                1 3 4 7 8 9</in></_></splits></_>
        <_>
          <depth>2</depth>
          <value>-6.4722295288158960e-01</value>
          <splits>
            <_><var>323</var>
              <quality>1.3741827569901943e-02</quality>
              <le>1.2750000000000000e+02</le></_></splits></_>
        <_>
          <depth>3</depth>
          <value>-8.5741903576198142e-01</value>
          <splits>
            <_><var>297</var>
              <quality>1.4589156955480576e-02</quality>
              <le>3.3500000000000000e+01</le></_></splits></_>
        <_>
          <depth>4</depth>
          <value>-9.5375965644619665e-01</value>
          <splits>
            <_><var>199</var>
              <quality>1.4483332633972168e-02</quality>
              <le>3.1500000000000000e+01</le></_></splits></_>
        <_>
          <depth>5</depth>
          <value>-9.6103644816472189e-01</value></_>
        <_>
          <depth>5</depth>
          <value>9.8274856596940807e-01</value></_>
        <_>
          <depth>4</depth>
          <value>-3.3588836676369666e-01</value>
          <splits>
            <_><var>544</var>
              <quality>9.2325254809111357e-04</quality>
              <le>138.</le></_></splits></_>
        <_>
          <depth>5</depth>
          <value>1.5186112986335676e-01</value></_>
        <_>
          <depth>5</depth>
          <value>-7.5813023499871002e-01</value></_>
        <_>
          <depth>3</depth>
          <value>1.3089531860301298e-01</value>
          <splits>
            <_><var>458</var>
              <quality>1.0706230532377958e-03</quality>
              <le>2.8500000000000000e+01</le></_></splits></_>
        <_>
          <depth>4</depth>
          <value>5.0806496866728390e-01</value>
          <splits>
            <_><var>784</var>
              <quality>1.4797673793509603e-03</quality>
              <in>
                4 7 8 9</in></_></splits></_>
        <_>
          <depth>5</depth>
          <value>-5.2576904180033435e-01</value></_>
        <_>
          <depth>5</depth>
          <value>7.5042834310297424e-01</value></_>
        <_>
          <depth>4</depth>
          <value>-3.8938054463399957e-01</value>
          <splits>
            <_><var>543</var>
              <quality>7.3211884591728449e-04</quality>
              <le>5.0000000000000000e-01</le></_></splits></_>
        <_>
          <depth>5</depth>
          <value>4.4868037559642648e-01</value></_>
        <_>
          <depth>5</depth>
          <value>-6.2271927762038237e-01</value></_>
        <_>
          <depth>2</depth>
          <value>5.8075915838141623e-01</value>
          <splits>
            <_><var>784</var>
              <quality>2.1266384050250053e-02</quality>
              <not_in>
                6</not_in></_></splits></_>
        <_>
          <depth>3</depth>
          <value>1.9419013699600057e-01</value>
          <splits>
            <_><var>320</var>
              <quality>4.1534542106091976e-03</quality>
              <le>4.6500000000000000e+01</le></_></splits></_>
        <_>
          <depth>4</depth>
          <value>5.6417851320851808e-01</value>
          <splits>
            <_><var>784</var>
              <quality>4.8858183436095715e-03</quality>
              <not_in>
                2</not_in></_></splits></_>
        <_>
          <depth>5</depth>
          <value>2.5180640601362519e-02</value></_>
        <_>
          <depth>5</depth>
          <value>7.9930739712124288e-01</value></_>
        <_>
          <depth>4</depth>
          <value>-2.7627167263980951e-01</value>
          <splits>
            <_><var>784</var>
              <quality>2.3720387835055590e-03</quality>
              <in>
                2</in></_></splits></_>
        <_>
          <depth>5</depth>
          <value>-7.1085246562156268e-01</value></_>
        <_>
          <depth>5</depth>
          <value>1.8027706527746795e-01</value></_>
        <_>
          <depth>3</depth>
          <value>8.4363284590201182e-01</value>
          <splits>
            <_><var>243</var>
              <quality>2.5122847408056259e-02</quality>
              <le>28.</le></_></splits></_>
        <_>
          <depth>4</depth>
          <value>9.4568619216471417e-01</value>
          <splits>
            <_><var>245</var>
              <quality>2.4849448353052139e-02</quality>
              <le>155.</le></_></splits></_>
        <_>
          <depth>5</depth>
          <value>9.5843968052249673e-01</value></_>
        <_>
          <depth>5</depth>
          <value>-9.0333649225372470e-01</value></_>
        <_>
          <depth>4</depth>
          <value>-7.1787152585286074e-01</value>
          <splits>
            <_><var>318</var>
              <quality>1.3997745700180531e-03</quality>
              <le>162.</le></_></splits></_>
        <_>
          <depth>5</depth>
          <value>-9.6365711007614341e-01</value></_>
        <_>
          <depth>5</depth>
          <value>4.0425520067373777e-01</value></_></nodes></_>
    <_>
      <nodes>
        <_>
          <depth>0</depth>
          <value>-7.7588389357879598e-03</value>
          <splits>
            <_><var>317</var>
              <quality>1.8681000219658017e-03</quality>
              <le>3.5000000000000000e+00</le></_></splits></_>
        <_>
          <depth>1</depth>
          <value>-5.0084832677207307e-02</value>
          <splits>
            <_><var>784</var>
              <quality>7.3434729129076004e-03</quality>
              <in>
                0 4</in></_></splits></_>
        <_>
          <depth>2</depth>
          <value>-3.1593631762631835e-01</value>
          <splits>
            <_><var>378</var>
              <quality>1.9620016217231750e-02</quality>
              <le>8.2500000000000000e+01</le></_></splits></_>
        <_>
          <depth>3</depth>
          <value>6.4407630514931341e-02</value>
          <splits>
            <_><var>456</var>
              <quality>3.6500324495136738e-03</quality>
              <le>2.7500000000000000e+01</le></_></splits></_>
        <_>
          <depth>4</depth>
          <value>-2.3622031834169135e-01</value>
          <splits>
            <_><var>425</var>
              <quality>2.9335434082895517e-03</quality>
              <le>3.0500000000000000e+01</le></_></splits></_>
        <_>
          <depth>5</depth>
          <value>-3.5264596729985348e-01</value></_>
        <_>
          <depth>5</depth>
          <value>5.7712187219473032e-01</value></_>
        <_>
          <depth>4</depth>
          <value>3.5875216055514320e-01</value>
          <splits>
            <_><var>207</var>
              <quality>4.3649468570947647e-03</quality>
              <le>6.1500000000000000e+01</le></_></splits></_>
        <_>
          <depth>5</depth>
          <value>5.1914031124012505e-01</value></_>
        <_>
          <depth>5</depth>
          <value>-2.0577261560200177e-01</value></_>
        <_>
          <depth>3</depth>
          <value>-7.5505471836697480e-01</value>
          <splits>
            <_><var>182</var>
              <quality>2.0921310409903526e-02</quality>
              <le>6.5000000000000000e+00</le></_></splits></_>
        <_>
          <depth>4</depth>
          <value>-4.2895697404306071e-01</value>
          <splits>
            <_><var>429</var>
              <quality>2.8371897060424089e-03</quality>
              <le>1.0350000000000000e+02</le></_></splits></_>
        <_>
          <depth>5</depth>
          <value>-6.8368067467432325e-01</value></_>
        <_>
          <depth>5</depth>
          <value>-1.6319924395854512e-02</value></_>
        <_>
          <depth>4</depth>
          <value>-8.8666962343070665e-01</value>
          <splits>
            <_><var>292</var>
              <quality>1.9589588046073914e-02</quality>
              <le>2.1250000000000000e+02</le></_></splits></_>
        <_>
          <depth>5</depth>
          <value>-9.6461267665247274e-01</value></_>
        <_>
          <depth>5</depth>
          <value>-6.3656102056707797e-01</value></_>
        <_>
          <depth>2</depth>
          <value>-3.1256994213341520e-03</value>
          <splits>
            <_><var>784</var>
              <quality>3.1666280701756477e-03</quality>
              <in>
                2 5 6 7 8 9</in></_></splits></_>
        <_>
          <depth>3</depth>
          <value>-6.0088622406731941e-02</value>
          <splits>
            <_><var>323</var>
              <quality>1.0644326917827129e-02</quality>
              <le>1.9750000000000000e+02</le></_></splits></_>
        <_>
          <depth>4</depth>
          <value>6.2803616294169751e-02</value>
          <splits>
            <_><var>571</var>
              <quality>4.0818047709763050e-03</quality>
              <le>5.0000000000000000e-01</le></_></splits></_>
        <_>
          <depth>5</depth>
          <value>-9.4352247999487951e-02</value></_>
        <_>
          <depth>5</depth>
          <value>1.6764541967517338e-01</value></_>
        <_>
          <depth>4</depth>
          <value>-3.2764648720072675e-01</value>
          <splits>
            <_><var>264</var>
              <quality>1.6244191676378250e-02</quality>
              <le>3.4500000000000000e+01</le></_></splits></_>
        <_>
          <depth>5</depth>
          <value>-5.1305424359913998e-01</value></_>
        <_>
          <depth>5</depth>
          <value>4.7645208342477603e-02</value></_>
        <_>
          <depth>3</depth>
          <value>1.3024666163042878e-01</value>
          <splits>
            <_><var>350</var>
              <quality>2.8473708778619766e-02</quality>
              <le>3.3500000000000000e+01</le></_></splits></_>
        <_>
          <depth>4</depth>
          <value>-5.5353686010048719e-01</value>
          <splits>
            <_><var>406</var>
              <quality>1.4809625223278999e-02</quality>
              <le>2.2350000000000000e+02</le></_></splits></_>
        <_>
          <depth>5</depth>
          <value>-7.1889886034180484e-01</value></_>
        <_>
          <depth>5</depth>
          <value>-9.9052489659021747e-02</value></_>
        <_>
          <depth>4</depth>
          <value>4.3968752051128401e-01</value>
          <splits>
            <_><var>291</var>
              <quality>2.3788068443536758e-02</quality>
              <le>5.0000000000000000e-01</le></_></splits></_>
        <_>
          <depth>5</depth>
          <value>5.9590478490364884e-01</value></_>
        <_>
          <depth>5</depth>
          <value>-9.8208883544766701e-02</value></_>
        <_>
          <depth>1</depth>
          <value>3.7265153068558689e-02</value>
          <splits>
            <_><var>784</var>
              <quality>1.1929112486541271e-02</quality>
              <in>
                1</in></_></splits></_>
        <_>
          <depth>2</depth>
          <value>-8.2621256188192416e-01</value>
          <splits>
            <_><var>98</var>
              <quality>1.1056216433644295e-02</quality>
              <le>7.5000000000000000e+00</le></_></splits></_>
        <_>
          <depth>3</depth>
          <value>-8.7974294153891908e-01</value>
          <splits>
            <_><var>289</var>
              <quality>1.1268138885498047e-02</quality>
              <le>5.0000000000000000e-01</le></_></splits></_>
        <_>
          <depth>4</depth>
          <value>-4.0741616753404525e-01</value>
          <splits>
            <_><var>323</var>
              <quality>7.1719847619533539e-04</quality>
              <le>2.3050000000000000e+02</le></_></splits></_>
        <_>
          <depth>5</depth>
          <value>-8.4870054013650342e-01</value></_>
        <_>
          <depth>5</depth>
          <value>3.4152217478451308e-01</value></_>
        <_>
          <depth>4</depth>
          <value>-9.3367659203587661e-01</value>
          <splits>
            <_><var>620</var>
              <quality>1.1393121443688869e-02</quality>
              <le>241.</le></_></splits></_>
        <_>
          <depth>5</depth>
          <value>-9.5033061165188748e-01</value></_>
        <_>
          <depth>5</depth>
          <value>7.9762537664260180e-01</value></_>
        <_>
          <depth>3</depth>
          <value>5.1058734297001862e-01</value>
          <splits>
            <_><var>354</var>
              <quality>4.5264355139806867e-04</quality>
              <le>1.</le></_></splits></_>
        <_>
          <depth>4</depth>
          <value>8.6889082898886050e-01</value>
          <splits>
            <_><var>182</var>
              <quality>4.2546083568595350e-04</quality>
              <le>1.6650000000000000e+02</le></_></splits></_>
        <_>
          <depth>5</depth>
          <value>-1.</value></_>
        <_>
          <depth>5</depth>
          <value>9.6392689793432695e-01</value></_>
        <_>
          <depth>4</depth>
          <value>-1.</value></_>
        <_>
          <depth>2</depth>
          <value>6.5660309979534801e-02</value>
          <splits>
            <_><var>784</var>
              <quality>4.6178693883121014e-03</quality>
              <in>
                1 3 4 5 9</in></_></splits></_>
        <_>
          <depth>3</depth>
          <value>-5.8394822421315119e-03</value>
          <splits>
            <_><var>541</var>
              <quality>1.3831108808517456e-02</quality>
              <le>4.8500000000000000e+01</le></_></splits></_>
        <_>
          <depth>4</depth>
          <value>1.3427517428040550e-01</value>
          <splits>
            <_><var>406</var>
              <quality>8.3437580615282059e-03</quality>
              <le>5.0000000000000000e-01</le></_></splits></_>
        <_>
          <depth>5</depth>
          <value>-1.1187679909600097e-01</value></_>
        <_>
          <depth>5</depth>
          <value>2.4948523868907954e-01</value></_>
        <_>
          <depth>4</depth>
          <value>-4.1421400481332821e-01</value>
          <splits>
            <_><var>357</var>
              <quality>1.6440024599432945e-02</quality>
              <le>1.2500000000000000e+01</le></_></splits></_>
        <_>
          <depth>5</depth>
          <value>-1.3936779728205353e-01</value></_>
        <_>
          <depth>5</depth>
          <value>-7.5922412768215763e-01</value></_>
        <_>
          <depth>3</depth>
          <value>1.5024052109879890e-01</value>
          <splits>
            <_><var>541</var>
              <quality>1.5849325805902481e-02</quality>
              <le>2.6500000000000000e+01</le></_></splits></_>
        <_>
          <depth>4</depth>
          <value>-6.7076796993874671e-02</value>
          <splits>
            <_><var>430</var>
              <quality>6.9358381442725658e-03</quality>
              <le>5.7500000000000000e+01</le></_></splits></_>
        <_>
          <depth>5</depth>
          <value>1.4024110200047415e-01</value></_>
        <_>
          <depth>5</depth>
          <value>-3.4976676632304804e-01</value></_>
        <_>
          <depth>4</depth>
          <value>4.0350138547761871e-01</value>
          <splits>
            <_><var>784</var>
              <quality>2.1189082413911819e-02</quality>
              <in>
                7</in></_></splits></_>
        <_>
          <depth>5</depth>
          <value>-6.7748205157436603e-01</value></_>
        <_>
          <depth>5</depth>
          <value>4.6072989197831715e-01</value></_></nodes></_>
    <_>
      <nodes>
        <_>
          <depth>0</depth>
          <value>-1.6001781939958212e-02</value>
          <splits>
            <_><var>784</var>
              <quality>2.2358587011694908e-03</quality>
              <not_in>
                5 7</not_in></_></splits></_>
        <_>
          <depth>1</depth>
          <value>-3.9817511081340205e-02</value>
          <splits>
            <_><var>220</var>
              <quality>6.5968572162091732e-03</quality>
              <le>1.5000000000000000e+00</le></_></splits></_>
        <_>
          <depth>2</depth>
          <value>-1.9808053393521687e-02</value>
          <splits>
            <_><var>742</var>
              <quality>3.7555568851530552e-03</quality>
              <le>5.0000000000000000e-01</le></_></splits></_>
        <_>
          <depth>3</depth>
          <value>-8.5472638916133242e-03</value>
          <splits>
            <_><var>738</var>
              <quality>2.5685981381684542e-03</quality>
              <le>5.0000000000000000e-01</le></_></splits></_>
        <_>
          <depth>4</depth>
          <value>-1.7311795042172518e-04</value>
          <splits>
            <_><var>357</var>
              <quality>2.1238522604107857e-03</quality>
              <le>2.0500000000000000e+01</le></_></splits></_>
        <_>
          <depth>5</depth>
          <value>-2.9424005782060999e-02</value></_>
        <_>
          <depth>5</depth>
          <value>1.0695797532229341e-01</value></_>
        <_>
          <depth>4</depth>
          <value>-4.4385580815028469e-01</value>
          <splits>
            <_><var>784</var>
              <quality>7.4856881983578205e-03</quality>
              <not_in>
                5 7 9</not_in></_></splits></_>
        <_>
          <depth>5</depth>
          <value>-8.9180861699757896e-01</value></_>
        <_>
          <depth>5</depth>
          <value>3.9806020491392735e-01</value></_>
        <_>
          <depth>3</depth>
          <value>-4.5560106522283006e-01</value>
          <splits>
            <_><var>784</var>
              <quality>9.8070120438933372e-03</quality>
              <in>
                0 1 2 4 6 8</in></_></splits></_>
        <_>
          <depth>4</depth>
          <value>-9.4341562439207416e-01</value>
          <splits>
            <_><var>375</var>
              <quality>9.6079548820853233e-03</quality>
              <le>2.5450000000000000e+02</le></_></splits></_>
        <_>
          <depth>5</depth>
          <value>-9.6336385662788049e-01</value></_>
        <_>
          <depth>5</depth>
          <value>2.0606892765069601e-01</value></_>
        <_>
          <depth>4</depth>
          <value>2.4517995352269381e-01</value>
          <splits>
            <_><var>432</var>
              <quality>2.7384047862142324e-03</quality>
              <le>2.</le></_></splits></_>
        <_>
          <depth>5</depth>
          <value>-3.5107206405529490e-01</value></_>
        <_>
          <depth>5</depth>
          <value>7.7128952692213426e-01</value></_>
        <_>
          <depth>2</depth>
          <value>-4.0143414232451169e-01</value>
          <splits>
            <_><var>355</var>
              <quality>1.1039027944207191e-02</quality>
              <le>5.5000000000000000e+00</le></_></splits></_>
        <_>
          <depth>3</depth>
          <value>-7.2778495829668532e-01</value>
          <splits>
            <_><var>359</var>
              <quality>1.3150139711797237e-02</quality>
              <le>1.</le></_></splits></_>
        <_>
          <depth>4</depth>
          <value>-8.4131478335661936e-01</value>
          <splits>
            <_><var>325</var>
              <quality>1.4106032438576221e-02</quality>
              <le>1.9350000000000000e+02</le></_></splits></_>
        <_>
          <depth>5</depth>
          <value>-9.2488608408843886e-01</value></_>
        <_>
          <depth>5</depth>
          <value>-1.7658585971931443e-01</value></_>
        <_>
          <depth>4</depth>
          <value>1.7429139471049665e-01</value>
          <splits>
            <_><var>784</var>
              <quality>1.3552205637097359e-03</quality>
              <not_in>
                0 5 7</not_in></_></splits></_>
        <_>
          <depth>5</depth>
          <value>-5.4945920365148015e-01</value></_>
        <_>
          <depth>5</depth>
          <value>9.3747594255884070e-01</value></_>
        <_>
          <depth>3</depth>
          <value>-3.2567725530772626e-02</value>
          <splits>
            <_><var>784</var>
              <quality>6.1198952607810497e-03</quality>
              <in>
                0 1 2 3 6 9</in></_></splits></_>
        <_>
          <depth>4</depth>
          <value>-6.9212469310255531e-01</value>
          <splits>
            <_><var>242</var>
              <quality>4.2372532188892365e-03</quality>
              <le>6.8500000000000000e+01</le></_></splits></_>
        <_>
          <depth>5</depth>
          <value>-8.7267047408251486e-01</value></_>
        <_>
          <depth>5</depth>
          <value>-3.9677303805567588e-01</value></_>
        <_>
          <depth>4</depth>
          <value>4.6992816586843522e-01</value>
          <splits>
            <_><var>269</var>
              <quality>2.7569632511585951e-03</quality>
              <le>1.0350000000000000e+02</le></_></splits></_>
        <_>
          <depth>5</depth>
          <value>5.6465496829521122e-01</value></_>
        <_>
          <depth>5</depth>
          <value>1.5319146739284030e-02</value></_>
        <_>
          <depth>1</depth>
          <value>7.2059806837347917e-02</value>
          <splits>
            <_><var>358</var>
              <quality>8.5607497021555901e-03</quality>
              <le>3.2500000000000000e+01</le></_></splits></_>
        <_>
          <depth>2</depth>
          <value>1.3706317837718460e-01</value>
          <splits>
            <_><var>433</var>
              <quality>1.0239998809993267e-02</quality>
              <le>1.6500000000000000e+01</le></_></splits></_>
        <_>
          <depth>3</depth>
          <value>3.4459282640552819e-01</value>
          <splits>
            <_><var>457</var>
              <quality>1.4114564284682274e-02</quality>
              <le>1.2250000000000000e+02</le></_></splits></_>
        <_>
          <depth>4</depth>
          <value>4.3915577625318791e-01</value>
          <splits>
            <_><var>290</var>
              <quality>1.5458237379789352e-02</quality>
              <le>1.5000000000000000e+00</le></_></splits></_>
        <_>
          <depth>5</depth>
          <value>2.2109562581303310e-01</value></_>
        <_>
          <depth>5</depth>
          <value>5.4822767843169795e-01</value></_>
        <_>
          <depth>4</depth>
          <value>-1.6306642085223777e-01</value>
          <splits>
            <_><var>156</var>
              <quality>2.4706658441573381e-03</quality>
              <le>5.0000000000000000e-01</le></_></splits></_>
        <_>
          <depth>5</depth>
          <value>2.1563181402310116e-01</value></_>
        <_>
          <depth>5</depth>
          <value>-5.8370721377175550e-01</value></_>
        <_>
          <depth>3</depth>
          <value>-4.4141036771014178e-02</value>
          <splits>
            <_><var>354</var>
              <quality>1.0347807779908180e-02</quality>
              <le>1.2500000000000000e+01</le></_></splits></_>
        <_>
          <depth>4</depth>
          <value>2.3482577621712655e-01</value>
          <splits>
            <_><var>351</var>
              <quality>1.2974789366126060e-02</quality>
              <le>3.8500000000000000e+01</le></_></splits></_>
        <_>
          <depth>5</depth>
          <value>6.6942346797446428e-01</value></_>
        <_>
          <depth>5</depth>
          <value>-1.7495679423223531e-01</value></_>
        <_>
          <depth>4</depth>
          <value>-4.1978942379725759e-01</value>
          <splits>
            <_><var>295</var>
              <quality>1.0874032042920589e-02</quality>
              <le>2.9500000000000000e+01</le></_></splits></_>
        <_>
          <depth>5</depth>
          <value>-6.3484087117477916e-01</value></_>
        <_>
          <depth>5</depth>
          <value>-1.5273131219674845e-02</value></_>
        <_>
          <depth>2</depth>
          <value>-4.9921911841945643e-01</value>
          <splits>
            <_><var>186</var>
              <quality>9.0858805924654007e-03</quality>
              <le>1.5000000000000000e+00</le></_></splits></_>
        <_>
          <depth>3</depth>
          <value>3.6205019366256148e-02</value>
          <splits>
            <_><var>322</var>
              <quality>1.4113174984231591e-03</quality>
              <le>8.5000000000000000e+00</le></_></splits></_>
        <_>
          <depth>4</depth>
          <value>-4.3373108767510660e-01</value>
          <splits>
            <_><var>784</var>
              <quality>1.3249526964500546e-03</quality>
              <in>
                5</in></_></splits></_>
        <_>
          <depth>5</depth>
          <value>-8.5380901883351834e-01</value></_>
        <_>
          <depth>5</depth>
          <value>-1.8591702218345553e-03</value></_>
        <_>
          <depth>4</depth>
          <value>3.9747688851396346e-01</value>
          <splits>
            <_><var>784</var>
              <quality>1.2254876783117652e-03</quality>
              <not_in>
                7</not_in></_></splits></_>
        <_>
          <depth>5</depth>
          <value>3.4225862647410857e-02</value></_>
        <_>
          <depth>5</depth>
          <value>6.8592095071831805e-01</value></_>
        <_>
          <depth>3</depth>
          <value>-8.5504508297658799e-01</value>
          <splits>
            <_><var>330</var>
              <quality>1.0158077813684940e-02</quality>
              <le>1.1500000000000000e+01</le></_></splits></_>
        <_>
          <depth>4</depth>
          <value>8.7209847668254223e-02</value>
          <splits>
            <_><var>323</var>
              <quality>5.5975530995056033e-04</quality>
              <le>73.</le></_></splits></_>
        <_>
          <depth>5</depth>
          <value>-8.3459634493519674e-01</value></_>
        <_>
          <depth>5</depth>
          <value>6.2568815866064242e-01</value></_>
        <_>
          <depth>4</depth>
          <value>-9.4764113254630322e-01</value>
          <splits>
            <_><var>707</var>
              <quality>1.0276969522237778e-02</quality>
              <le>4.6500000000000000e+01</le></_></splits></_>
        <_>
          <depth>5</depth>
          <value>-9.6348649954237175e-01</value></_>
        <_>
          <depth>5</depth>
          <value>-2.3659925791215322e-01</value></_></nodes></_>
    <_>
      <nodes>
        <_>
          <depth>0</depth>
          <value>-1.2647872637395349e-02</value>
          <splits>
            <_><var>578</var>
              <quality>2.6516229845583439e-03</quality>
              <le>1.5000000000000000e+00</le></_></splits></_>
        <_>
          <depth>1</depth>
          <value>3.7078968917824508e-02</value>
          <splits>
            <_><var>784</var>
              <quality>4.5161489397287369e-03</quality>
              <in>
                0 2 3 5 6 8</in></_></splits></_>
        <_>
          <depth>2</depth>
          <value>-4.4214126405560550e-02</value>
          <splits>
            <_><var>569</var>
              <quality>1.1655712500214577e-02</quality>
              <le>6.5000000000000000e+00</le></_></splits></_>
        <_>
          <depth>3</depth>
          <value>-2.5497300060480976e-01</value>
          <splits>
            <_><var>623</var>
              <quality>1.4612698927521706e-02</quality>
              <le>6.5000000000000000e+00</le></_></splits></_>
        <_>
          <depth>4</depth>
          <value>-3.5199932466051409e-01</value>
          <splits>
            <_><var>515</var>
              <quality>2.2660953924059868e-02</quality>
              <le>2.8500000000000000e+01</le></_></splits></_>
        <_>
          <depth>5</depth>
          <value>-5.7570688349177002e-01</value></_>
        <_>
          <depth>5</depth>
          <value>3.2432272975306362e-02</value></_>
        <_>
          <depth>4</depth>
          <value>2.4224044423579155e-01</value>
          <splits>
            <_><var>402</var>
              <quality>2.4751720484346151e-03</quality>
              <le>2.5000000000000000e+00</le></_></splits></_>
        <_>
          <depth>5</depth>
          <value>5.1970612997147037e-01</value></_>
        <_>
          <depth>5</depth>
          <value>3.0288043630075451e-02</value></_>
        <_>
          <depth>3</depth>
          <value>1.5453947271603971e-01</value>
          <splits>
            <_><var>652</var>
              <quality>5.6477678008377552e-03</quality>
              <le>1.3500000000000000e+01</le></_></splits></_>
        <_>
          <depth>4</depth>
          <value>2.4952232066257521e-01</value>
          <splits>
            <_><var>784</var>
              <quality>7.9217804595828056e-03</quality>
              <not_in>
                0 2 5</not_in></_></splits></_>
        <_>
          <depth>5</depth>
          <value>7.8028687957570675e-02</value></_>
        <_>
          <depth>5</depth>
          <value>3.9917508772956739e-01</value></_>
        <_>
          <depth>4</depth>
          <value>-2.8615180986904607e-02</value>
          <splits>
            <_><var>602</var>
              <quality>4.3846857734024525e-03</quality>
              <le>3.5000000000000000e+00</le></_></splits></_>
        <_>
          <depth>5</depth>
          <value>-4.6974091548367830e-01</value></_>
        <_>
          <depth>5</depth>
          <value>1.8226546644721175e-01</value></_>
        <_>
          <depth>2</depth>
          <value>1.3360047096765199e-01</value>
          <splits>
            <_><var>568</var>
              <quality>1.4709041453897953e-02</quality>
              <le>2.8500000000000000e+01</le></_></splits></_>
        <_>
          <depth>3</depth>
          <value>2.2111845280359030e-01</value>
          <splits>
            <_><var>662</var>
              <quality>1.3313559815287590e-02</quality>
              <le>1.2850000000000000e+02</le></_></splits></_>
        <_>
          <depth>4</depth>
          <value>2.4574268270304991e-01</value>
          <splits>
            <_><var>548</var>
              <quality>1.4129445888102055e-02</quality>
              <le>2.2500000000000000e+01</le></_></splits></_>
        <_>
          <depth>5</depth>
          <value>3.7267506607506312e-01</value></_>
        <_>
          <depth>5</depth>
          <value>1.2734722180354446e-01</value></_>
        <_>
          <depth>4</depth>
          <value>-5.9462974106202904e-01</value>
          <splits>
            <_><var>548</var>
              <quality>3.2772661652415991e-03</quality>
              <le>120.</le></_></splits></_>
        <_>
          <depth>5</depth>
          <value>-8.9161177452993090e-01</value></_>
        <_>
          <depth>5</depth>
          <value>1.6607358395676644e-01</value></_>
        <_>
          <depth>3</depth>
          <value>-4.1308643724267680e-01</value>
          <splits>
            <_><var>547</var>
              <quality>1.0502275079488754e-02</quality>
              <le>4.5000000000000000e+00</le></_></splits></_>
        <_>
          <depth>4</depth>
          <value>6.6501564110189801e-02</value>
          <splits>
            <_><var>651</var>
              <quality>2.5321564171463251e-03</quality>
              <le>7.5500000000000000e+01</le></_></splits></_>
        <_>
          <depth>5</depth>
          <value>-3.8410512432032506e-01</value></_>
        <_>
          <depth>5</depth>
          <value>4.8569654065096768e-01</value></_>
        <_>
          <depth>4</depth>
          <value>-7.6602334332978650e-01</value>
          <splits>
            <_><var>597</var>
              <quality>1.0822948068380356e-02</quality>
              <le>9.1500000000000000e+01</le></_></splits></_>
        <_>
          <depth>5</depth>
          <value>-5.1837342777004891e-01</value></_>
        <_>
          <depth>5</depth>
          <value>-8.5191400804493678e-01</value></_>
        <_>
          <depth>1</depth>
          <value>-6.5560983949467438e-02</value>
          <splits>
            <_><var>784</var>
              <quality>7.0261266082525253e-03</quality>
              <in>
                1 4 7 9</in></_></splits></_>
        <_>
          <depth>2</depth>
          <value>-2.3826937397929263e-01</value>
          <splits>
            <_><var>600</var>
              <quality>2.7968106791377068e-02</quality>
              <le>5.0000000000000000e-01</le></_></splits></_>
        <_>
          <depth>3</depth>
          <value>1.1652821030289369e-01</value>
          <splits>
            <_><var>655</var>
              <quality>1.0105191729962826e-02</quality>
              <le>2.5000000000000000e+00</le></_></splits></_>
        <_>
          <depth>4</depth>
          <value>2.6275680943992197e-01</value>
          <splits>
            <_><var>554</var>
              <quality>6.1784712597727776e-03</quality>
              <le>4.5000000000000000e+00</le></_></splits></_>
        <_>
          <depth>5</depth>
          <value>3.0637322436509407e-01</value></_>
        <_>
          <depth>5</depth>
          <value>-4.8191423904151037e-01</value></_>
        <_>
          <depth>4</depth>
          <value>-7.6447001782659085e-01</value>
          <splits>
            <_><var>354</var>
              <quality>6.6461181268095970e-03</quality>
              <le>2.4850000000000000e+02</le></_></splits></_>
        <_>
          <depth>5</depth>
          <value>-8.9043695936030620e-01</value></_>
        <_>
          <depth>5</depth>
          <value>-1.8078753733601274e-01</value></_>
        <_>
          <depth>3</depth>
          <value>-7.1533187154872913e-01</value>
          <splits>
            <_><var>547</var>
              <quality>2.8803752735257149e-02</quality>
              <le>1.8250000000000000e+02</le></_></splits></_>
        <_>
          <depth>4</depth>
          <value>-8.5538678951708091e-01</value>
          <splits>
            <_><var>341</var>
              <quality>2.4900607764720917e-02</quality>
              <le>192.</le></_></splits></_>
        <_>
          <depth>5</depth>
          <value>-8.7642877910623329e-01</value></_>
        <_>
          <depth>5</depth>
          <value>-3.0321009566002805e-01</value></_>
        <_>
          <depth>4</depth>
          <value>-4.7190945049112537e-01</value>
          <splits>
            <_><var>784</var>
              <quality>6.6432747989892960e-03</quality>
              <in>
                4 7 9</in></_></splits></_>
        <_>
          <depth>5</depth>
          <value>-6.7296204870810528e-01</value></_>
        <_>
          <depth>5</depth>
          <value>1.3474838717079859e-01</value></_>
        <_>
          <depth>2</depth>
          <value>-2.0583575113611659e-03</value>
          <splits>
            <_><var>718</var>
              <quality>5.1820087246596813e-03</quality>
              <le>7.5000000000000000e+00</le></_></splits></_>
        <_>
          <depth>3</depth>
          <value>2.1559709407601307e-02</value>
          <splits>
            <_><var>318</var>
              <quality>2.6427363045513630e-03</quality>
              <le>1.5000000000000000e+00</le></_></splits></_>
        <_>
          <depth>4</depth>
          <value>-8.6791205916346897e-02</value>
          <splits>
            <_><var>784</var>
              <quality>6.2773530371487141e-03</quality>
              <in>
                0 5 6 8</in></_></splits></_>
        <_>
          <depth>5</depth>
          <value>-2.9614109177157960e-01</value></_>
        <_>
          <depth>5</depth>
          <value>1.1083144814464915e-01</value></_>
        <_>
          <depth>4</depth>
          <value>9.2374290386995253e-02</value>
          <splits>
            <_><var>784</var>
              <quality>7.2444453835487366e-03</quality>
              <in>
                2</in></_></splits></_>
        <_>
          <depth>5</depth>
          <value>-4.1300583299907156e-01</value></_>
        <_>
          <depth>5</depth>
          <value>1.4847833221499712e-01</value></_>
        <_>
          <depth>3</depth>
          <value>-6.5386853162640801e-01</value>
          <splits>
            <_><var>466</var>
              <quality>7.1225222200155258e-03</quality>
              <le>2.1500000000000000e+01</le></_></splits></_>
        <_>
          <depth>4</depth>
          <value>2.2202152773747305e-01</value>
          <splits>
            <_><var>784</var>
              <quality>9.0772734256461263e-04</quality>
              <in>
                0 2 5 6</in></_></splits></_>
        <_>
          <depth>5</depth>
          <value>-5.6566492752846231e-01</value></_>
        <_>
          <depth>5</depth>
          <value>6.8009073101047413e-01</value></_>
        <_>
          <depth>4</depth>
          <value>-8.5678769348534090e-01</value>
          <splits>
            <_><var>657</var>
              <quality>7.7553926967084408e-03</quality>
              <le>6.</le></_></splits></_>
        <_>
          <depth>5</depth>
          <value>-9.3483313445017269e-01</value></_>
        <_>
          <depth>5</depth>
          <value>1.3829460007951150e-01</value></_></nodes></_>
    <_>
      <nodes>
        <_>
          <depth>0</depth>
          <value>-1.9518819407545292e-02</value>
          <splits>
            <_><var>784</var>
              <quality>1.8771340837702155e-03</quality>
              <in>
                0 1 4 7</in></_></splits></_>
        <_>
          <depth>1</depth>
          <value>-7.5846937975195580e-02</value>
          <splits>
            <_><var>378</var>
              <quality>1.6009699553251266e-02</quality>
              <le>5.0000000000000000e-01</le></_></splits></_>
        <_>
          <depth>2</depth>
          <value>1.5407954554647901e-01</value>
          <splits>
            <_><var>462</var>
              <quality>1.2549925595521927e-02</quality>
              <le>5.0000000000000000e-01</le></_></splits></_>
        <_>
          <depth>3</depth>
          <value>4.4294888224124090e-01</value>
          <splits>
            <_><var>784</var>
              <quality>1.9378548488020897e-02</quality>
              <in>
                1 4</in></_></splits></_>
        <_>
          <depth>4</depth>
          <value>-2.7620177986080596e-01</value>
          <splits>
            <_><var>238</var>
              <quality>3.0932023655623198e-03</quality>
              <le>5.0000000000000000e-01</le></_></splits></_>
        <_>
          <depth>5</depth>
          <value>2.4001790150111499e-01</value></_>
        <_>
          <depth>5</depth>
          <value>-6.5785488790605284e-01</value></_>
        <_>
          <depth>4</depth>
          <value>6.0255390812972887e-01</value>
          <splits>
            <_><var>323</var>
              <quality>2.2545481100678444e-02</quality>
              <le>1.6450000000000000e+02</le></_></splits></_>
        <_>
          <depth>5</depth>
          <value>7.1386717855536319e-01</value></_>
        <_>
          <depth>5</depth>
          <value>-1.0744771565632738e-01</value></_>
        <_>
          <depth>3</depth>
          <value>-6.2397376773570309e-02</value>
          <splits>
            <_><var>784</var>
              <quality>1.0318450629711151e-02</quality>
              <in>
                0 1</in></_></splits></_>
        <_>
          <depth>4</depth>
          <value>-6.9446173420881274e-01</value>
          <splits>
            <_><var>596</var>
              <quality>1.0284198448061943e-02</quality>
              <le>2.2550000000000000e+02</le></_></splits></_>
        <_>
          <depth>5</depth>
          <value>-8.2135361234929616e-01</value></_>
        <_>
          <depth>5</depth>
          <value>-2.8088765233800655e-01</value></_>
        <_>
          <depth>4</depth>
          <value>1.2776967173421996e-01</value>
          <splits>
            <_><var>211</var>
              <quality>8.8004879653453827e-03</quality>
              <le>8.5000000000000000e+00</le></_></splits></_>
        <_>
          <depth>5</depth>
          <value>5.1140124827808064e-01</value></_>
        <_>
          <depth>5</depth>
          <value>-1.8855835809915797e-01</value></_>
        <_>
          <depth>2</depth>
          <value>-2.6992584619641014e-01</value>
          <splits>
            <_><var>784</var>
              <quality>2.4763176217675209e-02</quality>
              <in>
                0</in></_></splits></_>
        <_>
          <depth>3</depth>
          <value>-7.5656112690610411e-01</value>
          <splits>
            <_><var>358</var>
              <quality>2.6340654119849205e-02</quality>
              <le>4.0500000000000000e+01</le></_></splits></_>
        <_>
          <depth>4</depth>
          <value>-8.7264093022101852e-01</value>
          <splits>
            <_><var>458</var>
              <quality>2.7425687760114670e-02</quality>
              <le>2.4850000000000000e+02</le></_></splits></_>
        <_>
          <depth>5</depth>
          <value>-9.4888086624335644e-01</value></_>
        <_>
          <depth>5</depth>
          <value>-4.5921461185776630e-01</value></_>
        <_>
          <depth>4</depth>
          <value>3.1430920092730762e-02</value>
          <splits>
            <_><var>267</var>
              <quality>2.0850480068475008e-03</quality>
              <le>2.4650000000000000e+02</le></_></splits></_>
        <_>
          <depth>5</depth>
          <value>-5.4267662956687746e-01</value></_>
        <_>
          <depth>5</depth>
          <value>7.4258869478339773e-01</value></_>
        <_>
          <depth>3</depth>
          <value>-1.2436970951659443e-01</value>
          <splits>
            <_><var>211</var>
              <quality>9.0709123760461807e-03</quality>
              <le>2.5000000000000000e+00</le></_></splits></_>
        <_>
          <depth>4</depth>
          <value>2.1125074360861418e-01</value>
          <splits>
            <_><var>155</var>
              <quality>6.7067216150462627e-03</quality>
              <le>4.2500000000000000e+01</le></_></splits></_>
        <_>
          <depth>5</depth>
          <value>3.1969916974297541e-01</value></_>
        <_>
          <depth>5</depth>
          <value>-8.3588122298138678e-01</value></_>
        <_>
          <depth>4</depth>
          <value>-2.8202229870707951e-01</value>
          <splits>
            <_><var>295</var>
              <quality>1.4947571791708469e-02</quality>
              <le>1.3650000000000000e+02</le></_></splits></_>
        <_>
          <depth>5</depth>
          <value>-5.9353782372543462e-01</value></_>
        <_>
          <depth>5</depth>
          <value>-5.7212557827568764e-03</value></_>
        <_>
          <depth>1</depth>
          <value>8.7952396449181465e-03</value>
          <splits>
            <_><var>378</var>
              <quality>9.7793405875563622e-03</quality>
              <le>5.0000000000000000e-01</le></_></splits></_>
        <_>
          <depth>2</depth>
          <value>-1.5779574887932327e-01</value>
          <splits>
            <_><var>784</var>
              <quality>1.5048493631184101e-02</quality>
              <in>
                3 8</in></_></splits></_>
        <_>
          <depth>3</depth>
          <value>-4.6991235465118503e-01</value>
          <splits>
            <_><var>483</var>
              <quality>2.3243939504027367e-02</quality>
              <le>3.5000000000000000e+00</le></_></splits></_>
        <_>
          <depth>4</depth>
          <value>-1.4850609353563168e-01</value>
          <splits>
            <_><var>685</var>
              <quality>5.2317734807729721e-03</quality>
              <le>3.5000000000000000e+00</le></_></splits></_>
        <_>
          <depth>5</depth>
          <value>-4.1934029002902717e-01</value></_>
        <_>
          <depth>5</depth>
          <value>2.9607727660526179e-01</value></_>
        <_>
          <depth>4</depth>
          <value>-8.5041310760318756e-01</value>
          <splits>
            <_><var>323</var>
              <quality>2.3759765550494194e-02</quality>
              <le>2.5150000000000000e+02</le></_></splits></_>
        <_>
          <depth>5</depth>
          <value>-8.9987930737872446e-01</value></_>
        <_>
          <depth>5</depth>
          <value>1.3562221000403531e-02</value></_>
        <_>
          <depth>3</depth>
          <value>-2.3797612017907973e-02</value>
          <splits>
            <_><var>784</var>
              <quality>4.3514054268598557e-03</quality>
              <in>
                5 6 9</in></_></splits></_>
        <_>
          <depth>4</depth>
          <value>-1.2448027587179988e-01</value>
          <splits>
            <_><var>299</var>
              <quality>8.4555326029658318e-03</quality>
              <le>1.5000000000000000e+00</le></_></splits></_>
        <_>
          <depth>5</depth>
          <value>1.3642947057217816e-01</value></_>
        <_>
          <depth>5</depth>
          <value>-3.4755158035257971e-01</value></_>
        <_>
          <depth>4</depth>
          <value>2.4447253877137373e-01</value>
          <splits>
            <_><var>464</var>
              <quality>7.7447257936000824e-03</quality>
              <le>1.8500000000000000e+01</le></_></splits></_>
        <_>
          <depth>5</depth>
          <value>-4.1524832824880586e-01</value></_>
        <_>
          <depth>5</depth>
          <value>4.2650690655883777e-01</value></_>
        <_>
          <depth>2</depth>
          <value>1.0118069256413041e-01</value>
          <splits>
            <_><var>784</var>
              <quality>9.1157061979174614e-03</quality>
              <not_in>
                8</not_in></_></splits></_>
        <_>
          <depth>3</depth>
          <value>4.2615346275469881e-02</value>
          <splits>
            <_><var>434</var>
              <quality>5.9798052534461021e-03</quality>
              <le>2.1250000000000000e+02</le></_></splits></_>
        <_>
          <depth>4</depth>
          <value>1.6068080066555585e-01</value>
          <splits>
            <_><var>784</var>
              <quality>7.0735937915742397e-03</quality>
              <in>
                2</in></_></splits></_>
        <_>
          <depth>5</depth>
          <value>-1.2783340028048146e-01</value></_>
        <_>
          <depth>5</depth>
          <value>2.1170587163797339e-01</value></_>
        <_>
          <depth>4</depth>
          <value>-1.0161836371872610e-01</value>
          <splits>
            <_><var>429</var>
              <quality>5.4002543911337852e-03</quality>
              <le>2.5000000000000000e+00</le></_></splits></_>
        <_>
          <depth>5</depth>
          <value>-2.5804719375942636e-01</value></_>
        <_>
          <depth>5</depth>
          <value>7.4072222400026561e-02</value></_>
        <_>
          <depth>3</depth>
          <value>3.0909550330999691e-01</value>
          <splits>
            <_><var>658</var>
              <quality>2.1633762866258621e-02</quality>
              <le>5.0000000000000000e-01</le></_></splits></_>
        <_>
          <depth>4</depth>
          <value>-2.7726830794955815e-01</value>
          <splits>
            <_><var>630</var>
              <quality>4.4658742845058441e-03</quality>
              <le>1.5000000000000000e+00</le></_></splits></_>
        <_>
          <depth>5</depth>
          <value>-5.1703779872397837e-01</value></_>
        <_>
          <depth>5</depth>
          <value>9.9547862780314536e-02</value></_>
        <_>
          <depth>4</depth>
          <value>5.5894104164343350e-01</value>
          <splits>
            <_><var>515</var>
              <quality>2.5000959634780884e-02</quality>
              <le>5.0000000000000000e-01</le></_></splits></_>
        <_>
          <depth>5</depth>
          <value>1.6937444847120800e-01</value></_>
        <_>
          <depth>5</depth>
          <value>7.8093521724567616e-01</value></_></nodes></_>
    <_>
      <nodes>
        <_>
          <depth>0</depth>
          <value>-1.2577255242162196e-02</value>
          <splits>
            <_><var>710</var>
              <quality>3.1607269775122404e-03</quality>
              <le>5.0000000000000000e-01</le></_></splits></_>
        <_>
          <depth>1</depth>
          <value>-2.9299649401102090e-02</value>
          <splits>
            <_><var>784</var>
              <quality>4.7143339179456234e-03</quality>
              <in>
                7</in></_></splits></_>
        <_>
          <depth>2</depth>
          <value>-2.5757165056524822e-01</value>
          <splits>
            <_><var>714</var>
              <quality>1.7752462998032570e-02</quality>
              <le>5.0000000000000000e-01</le></_></splits></_>
        <_>
          <depth>3</depth>
          <value>-4.9598817579003240e-01</value>
          <splits>
            <_><var>437</var>
              <quality>1.7757667228579521e-02</quality>
              <le>2.1500000000000000e+01</le></_></splits></_>
        <_>
          <depth>4</depth>
          <value>-7.9683991073145177e-01</value>
          <splits>
            <_><var>709</var>
              <quality>1.7799213528633118e-02</quality>
              <le>21.</le></_></splits></_>
        <_>
          <depth>5</depth>
          <value>-8.2802008027440044e-01</value></_>
        <_>
          <depth>5</depth>
          <value>8.2982721970836759e-01</value></_>
        <_>
          <depth>4</depth>
          <value>-2.1441147141509595e-01</value>
          <splits>
            <_><var>268</var>
              <quality>4.4025834649801254e-03</quality>
              <le>7.5000000000000000e+00</le></_></splits></_>
        <_>
          <depth>5</depth>
          <value>-6.9773723147760036e-01</value></_>
        <_>
          <depth>5</depth>
          <value>1.8891113119180170e-02</value></_>
        <_>
          <depth>3</depth>
          <value>5.2803076783016223e-01</value>
          <splits>
            <_><var>347</var>
              <quality>7.0285797119140625e-03</quality>
              <le>6.5000000000000000e+00</le></_></splits></_>
